digraph Tree {
node [shape=box, style="filled, rounded", color="black", fontname="helvetica"] ;
edge [fontname="helvetica"] ;
0 [label=<PC1 &le; -0.949<br/>squared_error = 85.621<br/>samples = 1411<br/>value = 69.571>, fillcolor="#efb286"] ;
1 [label=<PC2 &le; -0.351<br/>squared_error = 50.246<br/>samples = 450<br/>value = 59.218>, fillcolor="#f4ccaf"] ;
0 -> 1 [labeldistance=2.5, labelangle=45, headlabel="True"] ;
2 [label=<PC5 &le; -0.943<br/>squared_error = 29.481<br/>samples = 171<br/>value = 63.953>, fillcolor="#f2c09c"] ;
1 -> 2 ;
3 [label=<PC1 &le; -2.612<br/>squared_error = 16.571<br/>samples = 22<br/>value = 56.279>, fillcolor="#f6d3bb"] ;
2 -> 3 ;
4 [label=<PC5 &le; -1.453<br/>squared_error = 11.216<br/>samples = 9<br/>value = 51.442>, fillcolor="#f9e0ce"] ;
3 -> 4 ;
5 [label=<PC7 &le; -0.064<br/>squared_error = 0.398<br/>samples = 4<br/>value = 48.583>, fillcolor="#fae7d9"] ;
4 -> 5 ;
6 [label=<PC2 &le; -0.392<br/>squared_error = 0.122<br/>samples = 3<br/>value = 48.34>, fillcolor="#fae7da"] ;
5 -> 6 ;
7 [label=<PC3 &le; -0.918<br/>squared_error = 0.017<br/>samples = 2<br/>value = 48.175>, fillcolor="#fae8db"] ;
6 -> 7 ;
8 [label=<squared_error = 0.0<br/>samples = 1<br/>value = 48.1>, fillcolor="#fae8db"] ;
7 -> 8 ;
9 [label=<squared_error = 0.0<br/>samples = 1<br/>value = 48.4>, fillcolor="#fae7da"] ;
7 -> 9 ;
10 [label=<squared_error = 0.0<br/>samples = 1<br/>value = 49.0>, fillcolor="#fae6d7"] ;
6 -> 10 ;
11 [label=<squared_error = -0.0<br/>samples = 1<br/>value = 49.8>, fillcolor="#f9e4d4"] ;
5 -> 11 ;
12 [label=<PC2 &le; -0.898<br/>squared_error = 5.693<br/>samples = 5<br/>value = 54.3>, fillcolor="#f7d8c2"] ;
4 -> 12 ;
13 [label=<PC2 &le; -1.373<br/>squared_error = 0.855<br/>samples = 3<br/>value = 52.7>, fillcolor="#f8dcc9"] ;
12 -> 13 ;
14 [label=<PC3 &le; -1.288<br/>squared_error = 0.09<br/>samples = 2<br/>value = 51.8>, fillcolor="#f8dfcc"] ;
13 -> 14 ;
15 [label=<squared_error = 0.0<br/>samples = 1<br/>value = 51.5>, fillcolor="#f8e0ce"] ;
14 -> 15 ;
16 [label=<squared_error = 0.0<br/>samples = 1<br/>value = 52.1>, fillcolor="#f8decb"] ;
14 -> 16 ;
17 [label=<squared_error = 0.0<br/>samples = 1<br/>value = 53.6>, fillcolor="#f7dac5"] ;
13 -> 17 ;
18 [label=<PC5 &le; -1.3<br/>squared_error = 0.01<br/>samples = 2<br/>value = 57.5>, fillcolor="#f5d0b6"] ;
12 -> 18 ;
19 [label=<squared_error = 0.0<br/>samples = 1<br/>value = 57.6>, fillcolor="#f5d0b5"] ;
18 -> 19 ;
20 [label=<squared_error = 0.0<br/>samples = 1<br/>value = 57.4>, fillcolor="#f5d1b6"] ;
18 -> 20 ;
21 [label=<PC6 &le; 0.031<br/>squared_error = 3.258<br/>samples = 13<br/>value = 58.512>, fillcolor="#f5ceb2"] ;
3 -> 21 ;
22 [label=<squared_error = 0.0<br/>samples = 1<br/>value = 63.0>, fillcolor="#f3c3a0"] ;
21 -> 22 ;
23 [label=<PC7 &le; -1.064<br/>squared_error = 1.711<br/>samples = 12<br/>value = 58.138>, fillcolor="#f5cfb3"] ;
21 -> 23 ;
24 [label=<squared_error = 0.0<br/>samples = 1<br/>value = 55.3>, fillcolor="#f7d6be"] ;
23 -> 24 ;
25 [label=<PC4 &le; 0.468<br/>squared_error = 1.068<br/>samples = 11<br/>value = 58.395>, fillcolor="#f5ceb2"] ;
23 -> 25 ;
26 [label=<PC7 &le; -0.362<br/>squared_error = 0.189<br/>samples = 8<br/>value = 58.018>, fillcolor="#f5cfb4"] ;
25 -> 26 ;
27 [label=<PC5 &le; -1.335<br/>squared_error = 0.054<br/>samples = 5<br/>value = 58.225>, fillcolor="#f5cfb3"] ;
26 -> 27 ;
28 [label=<PC7 &le; -0.925<br/>squared_error = 0.016<br/>samples = 3<br/>value = 58.0>, fillcolor="#f5cfb4"] ;
27 -> 28 ;
29 [label=<squared_error = 0.0<br/>samples = 1<br/>value = 57.9>, fillcolor="#f5cfb4"] ;
28 -> 29 ;
30 [label=<PC3 &le; -0.782<br/>squared_error = 0.003<br/>samples = 2<br/>value = 58.15>, fillcolor="#f5cfb3"] ;
28 -> 30 ;
31 [label=<squared_error = 0.0<br/>samples = 1<br/>value = 58.1>, fillcolor="#f5cfb3"] ;
30 -> 31 ;
32 [label=<squared_error = -0.0<br/>samples = 1<br/>value = 58.2>, fillcolor="#f5cfb3"] ;
30 -> 32 ;
33 [label=<PC6 &le; 0.65<br/>squared_error = 0.018<br/>samples = 2<br/>value = 58.386>, fillcolor="#f5ceb2"] ;
27 -> 33 ;
34 [label=<squared_error = 0.0<br/>samples = 1<br/>value = 58.6>, fillcolor="#f5ceb1"] ;
33 -> 34 ;
35 [label=<squared_error = 0.0<br/>samples = 1<br/>value = 58.3>, fillcolor="#f5ceb3"] ;
33 -> 35 ;
36 [label=<PC7 &le; -0.332<br/>squared_error = 0.162<br/>samples = 3<br/>value = 57.52>, fillcolor="#f5d0b6"] ;
26 -> 36 ;
37 [label=<squared_error = 0.0<br/>samples = 1<br/>value = 56.8>, fillcolor="#f6d2b9"] ;
36 -> 37 ;
38 [label=<PC2 &le; -1.292<br/>squared_error = 0.04<br/>samples = 2<br/>value = 57.7>, fillcolor="#f5d0b5"] ;
36 -> 38 ;
39 [label=<squared_error = 0.0<br/>samples = 1<br/>value = 57.5>, fillcolor="#f5d0b6"] ;
38 -> 39 ;
40 [label=<squared_error = -0.0<br/>samples = 1<br/>value = 57.9>, fillcolor="#f5cfb4"] ;
38 -> 40 ;
41 [label=<PC3 &le; -1.288<br/>squared_error = 1.922<br/>samples = 3<br/>value = 59.68>, fillcolor="#f4cbad"] ;
25 -> 41 ;
42 [label=<PC4 &le; 0.699<br/>squared_error = 0.48<br/>samples = 2<br/>value = 60.3>, fillcolor="#f4c9ab"] ;
41 -> 42 ;
43 [label=<squared_error = 0.0<br/>samples = 1<br/>value = 59.9>, fillcolor="#f4caac"] ;
42 -> 43 ;
44 [label=<squared_error = 0.0<br/>samples = 1<br/>value = 61.5>, fillcolor="#f3c6a6"] ;
42 -> 44 ;
45 [label=<squared_error = 0.0<br/>samples = 1<br/>value = 57.2>, fillcolor="#f6d1b7"] ;
41 -> 45 ;
46 [label=<PC1 &le; -1.976<br/>squared_error = 20.765<br/>samples = 149<br/>value = 65.163>, fillcolor="#f1bd97"] ;
2 -> 46 ;
47 [label=<PC1 &le; -3.524<br/>squared_error = 12.672<br/>samples = 86<br/>value = 63.051>, fillcolor="#f2c2a0"] ;
46 -> 47 ;
48 [label=<PC4 &le; 0.721<br/>squared_error = 4.783<br/>samples = 5<br/>value = 53.9>, fillcolor="#f7d9c4"] ;
47 -> 48 ;
49 [label=<PC6 &le; -0.592<br/>squared_error = 0.667<br/>samples = 3<br/>value = 56.0>, fillcolor="#f6d4bc"] ;
48 -> 49 ;
50 [label=<squared_error = 0.0<br/>samples = 1<br/>value = 57.0>, fillcolor="#f6d2b8"] ;
49 -> 50 ;
51 [label=<PC1 &le; -3.922<br/>squared_error = 0.25<br/>samples = 2<br/>value = 55.5>, fillcolor="#f6d5be"] ;
49 -> 51 ;
52 [label=<squared_error = 0.0<br/>samples = 1<br/>value = 55.0>, fillcolor="#f7d7c0"] ;
51 -> 52 ;
53 [label=<squared_error = 0.0<br/>samples = 1<br/>value = 56.0>, fillcolor="#f6d4bc"] ;
51 -> 53 ;
54 [label=<PC6 &le; -0.518<br/>squared_error = 0.08<br/>samples = 2<br/>value = 51.8>, fillcolor="#f8dfcc"] ;
48 -> 54 ;
55 [label=<squared_error = 0.0<br/>samples = 1<br/>value = 51.6>, fillcolor="#f8dfcd"] ;
54 -> 55 ;
56 [label=<squared_error = 0.0<br/>samples = 1<br/>value = 52.2>, fillcolor="#f8decb"] ;
54 -> 56 ;
57 [label=<PC5 &le; 1.54<br/>squared_error = 9.108<br/>samples = 81<br/>value = 63.46>, fillcolor="#f2c19e"] ;
47 -> 57 ;
58 [label=<PC2 &le; -0.669<br/>squared_error = 7.718<br/>samples = 75<br/>value = 63.826>, fillcolor="#f2c09d"] ;
57 -> 58 ;
59 [label=<PC1 &le; -2.983<br/>squared_error = 5.935<br/>samples = 54<br/>value = 64.592>, fillcolor="#f2bf9a"] ;
58 -> 59 ;
60 [label=<PC3 &le; -0.469<br/>squared_error = 0.754<br/>samples = 12<br/>value = 63.005>, fillcolor="#f3c3a0"] ;
59 -> 60 ;
61 [label=<PC1 &le; -3.06<br/>squared_error = 0.186<br/>samples = 10<br/>value = 63.447>, fillcolor="#f2c19e"] ;
60 -> 61 ;
62 [label=<PC4 &le; 0.306<br/>squared_error = 0.099<br/>samples = 7<br/>value = 63.264>, fillcolor="#f2c29f"] ;
61 -> 62 ;
63 [label=<PC4 &le; 0.298<br/>squared_error = 0.04<br/>samples = 2<br/>value = 62.7>, fillcolor="#f3c3a1"] ;
62 -> 63 ;
64 [label=<squared_error = 0.0<br/>samples = 1<br/>value = 62.5>, fillcolor="#f3c4a2"] ;
63 -> 64 ;
65 [label=<squared_error = -0.0<br/>samples = 1<br/>value = 62.9>, fillcolor="#f3c3a0"] ;
63 -> 65 ;
66 [label=<PC4 &le; 0.595<br/>squared_error = 0.025<br/>samples = 5<br/>value = 63.389>, fillcolor="#f2c29e"] ;
62 -> 66 ;
67 [label=<PC4 &le; 0.383<br/>squared_error = 0.002<br/>samples = 3<br/>value = 63.26>, fillcolor="#f2c29f"] ;
66 -> 67 ;
68 [label=<squared_error = 0.0<br/>samples = 1<br/>value = 63.3>, fillcolor="#f2c29f"] ;
67 -> 68 ;
69 [label=<PC3 &le; -0.599<br/>squared_error = 0.0<br/>samples = 2<br/>value = 63.2>, fillcolor="#f2c29f"] ;
67 -> 69 ;
70 [label=<squared_error = 0.0<br/>samples = 1<br/>value = 63.2>, fillcolor="#f2c29f"] ;
69 -> 70 ;
71 [label=<squared_error = 0.0<br/>samples = 1<br/>value = 63.2>, fillcolor="#f2c29f"] ;
69 -> 71 ;
72 [label=<PC3 &le; -0.706<br/>squared_error = 0.008<br/>samples = 2<br/>value = 63.55>, fillcolor="#f2c19e"] ;
66 -> 72 ;
73 [label=<squared_error = 0.0<br/>samples = 1<br/>value = 63.7>, fillcolor="#f2c19d"] ;
72 -> 73 ;
74 [label=<squared_error = 0.0<br/>samples = 1<br/>value = 63.5>, fillcolor="#f2c19e"] ;
72 -> 74 ;
75 [label=<PC2 &le; -0.885<br/>squared_error = 0.083<br/>samples = 3<br/>value = 63.95>, fillcolor="#f2c09c"] ;
61 -> 75 ;
76 [label=<PC6 &le; -0.098<br/>squared_error = 0.02<br/>samples = 2<br/>value = 64.1>, fillcolor="#f2c09c"] ;
75 -> 76 ;
77 [label=<squared_error = 0.0<br/>samples = 1<br/>value = 63.9>, fillcolor="#f2c09c"] ;
76 -> 77 ;
78 [label=<squared_error = 0.0<br/>samples = 1<br/>value = 64.2>, fillcolor="#f2bf9b"] ;
76 -> 78 ;
79 [label=<squared_error = 0.0<br/>samples = 1<br/>value = 63.5>, fillcolor="#f2c19e"] ;
75 -> 79 ;
80 [label=<PC7 &le; 0.433<br/>squared_error = 0.118<br/>samples = 2<br/>value = 61.68>, fillcolor="#f3c6a5"] ;
60 -> 80 ;
81 [label=<squared_error = 0.0<br/>samples = 1<br/>value = 62.1>, fillcolor="#f3c5a4"] ;
80 -> 81 ;
82 [label=<squared_error = 0.0<br/>samples = 1<br/>value = 61.4>, fillcolor="#f3c7a6"] ;
80 -> 82 ;
83 [label=<PC7 &le; 0.685<br/>squared_error = 6.5<br/>samples = 42<br/>value = 65.059>, fillcolor="#f1bd98"] ;
59 -> 83 ;
84 [label=<PC6 &le; -0.393<br/>squared_error = 7.159<br/>samples = 28<br/>value = 65.831>, fillcolor="#f1bb95"] ;
83 -> 84 ;
85 [label=<PC7 &le; 0.457<br/>squared_error = 3.2<br/>samples = 9<br/>value = 63.62>, fillcolor="#f2c19e"] ;
84 -> 85 ;
86 [label=<PC7 &le; -0.355<br/>squared_error = 1.235<br/>samples = 6<br/>value = 64.717>, fillcolor="#f2be99"] ;
85 -> 86 ;
87 [label=<squared_error = 0.0<br/>samples = 1<br/>value = 66.8>, fillcolor="#f1b991"] ;
86 -> 87 ;
88 [label=<PC6 &le; -0.605<br/>squared_error = 0.44<br/>samples = 5<br/>value = 64.3>, fillcolor="#f2bf9b"] ;
86 -> 88 ;
89 [label=<PC1 &le; -2.385<br/>squared_error = 0.082<br/>samples = 3<br/>value = 64.767>, fillcolor="#f2be99"] ;
88 -> 89 ;
90 [label=<squared_error = 0.0<br/>samples = 1<br/>value = 64.4>, fillcolor="#f2bf9a"] ;
89 -> 90 ;
91 [label=<PC7 &le; -0.277<br/>squared_error = 0.023<br/>samples = 2<br/>value = 64.95>, fillcolor="#f2be98"] ;
89 -> 91 ;
92 [label=<squared_error = 0.0<br/>samples = 1<br/>value = 65.1>, fillcolor="#f1bd98"] ;
91 -> 92 ;
93 [label=<squared_error = 0.0<br/>samples = 1<br/>value = 64.8>, fillcolor="#f2be99"] ;
91 -> 93 ;
94 [label=<PC1 &le; -2.498<br/>squared_error = 0.16<br/>samples = 2<br/>value = 63.6>, fillcolor="#f2c19e"] ;
88 -> 94 ;
95 [label=<squared_error = 0.0<br/>samples = 1<br/>value = 64.0>, fillcolor="#f2c09c"] ;
94 -> 95 ;
96 [label=<squared_error = -0.0<br/>samples = 1<br/>value = 63.2>, fillcolor="#f2c29f"] ;
94 -> 96 ;
97 [label=<PC3 &le; 0.364<br/>squared_error = 1.637<br/>samples = 3<br/>value = 61.975>, fillcolor="#f3c5a4"] ;
85 -> 97 ;
98 [label=<PC4 &le; -0.037<br/>squared_error = 0.08<br/>samples = 2<br/>value = 62.7>, fillcolor="#f3c3a1"] ;
97 -> 98 ;
99 [label=<squared_error = 0.0<br/>samples = 1<br/>value = 63.1>, fillcolor="#f2c2a0"] ;
98 -> 99 ;
100 [label=<squared_error = 0.0<br/>samples = 1<br/>value = 62.5>, fillcolor="#f3c4a2"] ;
98 -> 100 ;
101 [label=<squared_error = 0.0<br/>samples = 1<br/>value = 59.8>, fillcolor="#f4cbad"] ;
97 -> 101 ;
102 [label=<PC7 &le; 0.377<br/>squared_error = 6.392<br/>samples = 19<br/>value = 66.522>, fillcolor="#f1ba92"] ;
84 -> 102 ;
103 [label=<PC7 &le; 0.303<br/>squared_error = 2.791<br/>samples = 10<br/>value = 65.411>, fillcolor="#f1bc96"] ;
102 -> 103 ;
104 [label=<PC5 &le; 0.42<br/>squared_error = 0.153<br/>samples = 6<br/>value = 66.269>, fillcolor="#f1ba93"] ;
103 -> 104 ;
105 [label=<squared_error = 0.0<br/>samples = 1<br/>value = 65.0>, fillcolor="#f1bd98"] ;
104 -> 105 ;
106 [label=<PC3 &le; 0.083<br/>squared_error = 0.02<br/>samples = 5<br/>value = 66.375>, fillcolor="#f1ba93"] ;
104 -> 106 ;
107 [label=<PC7 &le; 0.066<br/>squared_error = 0.008<br/>samples = 4<br/>value = 66.409>, fillcolor="#f1ba92"] ;
106 -> 107 ;
108 [label=<squared_error = 0.0<br/>samples = 1<br/>value = 66.3>, fillcolor="#f1ba93"] ;
107 -> 108 ;
109 [label=<PC5 &le; 0.76<br/>squared_error = 0.005<br/>samples = 3<br/>value = 66.45>, fillcolor="#f1ba92"] ;
107 -> 109 ;
110 [label=<squared_error = 0.0<br/>samples = 1<br/>value = 66.4>, fillcolor="#f1ba92"] ;
109 -> 110 ;
111 [label=<PC1 &le; -2.284<br/>squared_error = 0.002<br/>samples = 2<br/>value = 66.533>, fillcolor="#f1ba92"] ;
109 -> 111 ;
112 [label=<squared_error = 0.0<br/>samples = 1<br/>value = 66.6>, fillcolor="#f1b992"] ;
111 -> 112 ;
113 [label=<squared_error = 0.0<br/>samples = 1<br/>value = 66.5>, fillcolor="#f1ba92"] ;
111 -> 113 ;
114 [label=<squared_error = 0.0<br/>samples = 1<br/>value = 66.0>, fillcolor="#f1bb94"] ;
106 -> 114 ;
115 [label=<PC1 &le; -2.211<br/>squared_error = 2.758<br/>samples = 4<br/>value = 63.18>, fillcolor="#f2c29f"] ;
103 -> 115 ;
116 [label=<PC4 &le; 0.744<br/>squared_error = 0.085<br/>samples = 3<br/>value = 64.0>, fillcolor="#f2c09c"] ;
115 -> 116 ;
117 [label=<PC5 &le; 0.162<br/>squared_error = 0.002<br/>samples = 2<br/>value = 64.167>, fillcolor="#f2c09b"] ;
116 -> 117 ;
118 [label=<squared_error = 0.0<br/>samples = 1<br/>value = 64.2>, fillcolor="#f2bf9b"] ;
117 -> 118 ;
119 [label=<squared_error = 0.0<br/>samples = 1<br/>value = 64.1>, fillcolor="#f2c09c"] ;
117 -> 119 ;
120 [label=<squared_error = 0.0<br/>samples = 1<br/>value = 63.5>, fillcolor="#f2c19e"] ;
116 -> 120 ;
121 [label=<squared_error = -0.0<br/>samples = 1<br/>value = 59.9>, fillcolor="#f4caac"] ;
115 -> 121 ;
122 [label=<PC5 &le; 1.205<br/>squared_error = 7.395<br/>samples = 9<br/>value = 67.95>, fillcolor="#f0b68c"] ;
102 -> 122 ;
123 [label=<PC7 &le; 0.586<br/>squared_error = 1.179<br/>samples = 8<br/>value = 67.254>, fillcolor="#f0b88f"] ;
122 -> 123 ;
124 [label=<PC4 &le; -0.263<br/>squared_error = 1.012<br/>samples = 3<br/>value = 66.025>, fillcolor="#f1bb94"] ;
123 -> 124 ;
125 [label=<squared_error = 0.0<br/>samples = 1<br/>value = 67.0>, fillcolor="#f0b890"] ;
124 -> 125 ;
126 [label=<PC6 &le; -0.069<br/>squared_error = 0.122<br/>samples = 2<br/>value = 65.05>, fillcolor="#f1bd98"] ;
124 -> 126 ;
127 [label=<squared_error = 0.0<br/>samples = 1<br/>value = 64.7>, fillcolor="#f2be99"] ;
126 -> 127 ;
128 [label=<squared_error = -0.0<br/>samples = 1<br/>value = 65.4>, fillcolor="#f1bc96"] ;
126 -> 128 ;
129 [label=<PC3 &le; -1.067<br/>squared_error = 0.284<br/>samples = 5<br/>value = 67.8>, fillcolor="#f0b68d"] ;
123 -> 129 ;
130 [label=<PC2 &le; -1.707<br/>squared_error = 0.036<br/>samples = 2<br/>value = 68.467>, fillcolor="#f0b58a"] ;
129 -> 130 ;
131 [label=<squared_error = 0.0<br/>samples = 1<br/>value = 68.2>, fillcolor="#f0b58b"] ;
130 -> 131 ;
132 [label=<squared_error = 0.0<br/>samples = 1<br/>value = 68.6>, fillcolor="#f0b48a"] ;
130 -> 132 ;
133 [label=<PC3 &le; -0.169<br/>squared_error = 0.076<br/>samples = 3<br/>value = 67.467>, fillcolor="#f0b78e"] ;
129 -> 133 ;
134 [label=<squared_error = 0.0<br/>samples = 1<br/>value = 67.8>, fillcolor="#f0b68d"] ;
133 -> 134 ;
135 [label=<PC3 &le; 0.724<br/>squared_error = 0.03<br/>samples = 2<br/>value = 67.3>, fillcolor="#f0b88f"] ;
133 -> 135 ;
136 [label=<squared_error = 0.0<br/>samples = 1<br/>value = 67.4>, fillcolor="#f0b78f"] ;
135 -> 136 ;
137 [label=<squared_error = -0.0<br/>samples = 1<br/>value = 67.0>, fillcolor="#f0b890"] ;
135 -> 137 ;
138 [label=<squared_error = -0.0<br/>samples = 1<br/>value = 77.0>, fillcolor="#eb9f69"] ;
122 -> 138 ;
139 [label=<PC1 &le; -2.604<br/>squared_error = 2.916<br/>samples = 14<br/>value = 63.812>, fillcolor="#f2c09d"] ;
83 -> 139 ;
140 [label=<PC3 &le; -1.004<br/>squared_error = 1.727<br/>samples = 4<br/>value = 66.45>, fillcolor="#f1ba92"] ;
139 -> 140 ;
141 [label=<squared_error = 0.0<br/>samples = 1<br/>value = 64.4>, fillcolor="#f2bf9a"] ;
140 -> 141 ;
142 [label=<PC4 &le; 0.594<br/>squared_error = 0.436<br/>samples = 3<br/>value = 67.133>, fillcolor="#f0b890"] ;
140 -> 142 ;
143 [label=<squared_error = 0.0<br/>samples = 1<br/>value = 68.0>, fillcolor="#f0b68c"] ;
142 -> 143 ;
144 [label=<PC5 &le; 1.039<br/>squared_error = 0.09<br/>samples = 2<br/>value = 66.7>, fillcolor="#f1b991"] ;
142 -> 144 ;
145 [label=<squared_error = 0.0<br/>samples = 1<br/>value = 67.0>, fillcolor="#f0b890"] ;
144 -> 145 ;
146 [label=<squared_error = 0.0<br/>samples = 1<br/>value = 66.4>, fillcolor="#f1ba92"] ;
144 -> 146 ;
147 [label=<PC3 &le; 0.222<br/>squared_error = 1.636<br/>samples = 10<br/>value = 63.332>, fillcolor="#f2c29f"] ;
139 -> 147 ;
148 [label=<PC4 &le; 0.423<br/>squared_error = 0.297<br/>samples = 5<br/>value = 62.457>, fillcolor="#f3c4a2"] ;
147 -> 148 ;
149 [label=<PC1 &le; -2.348<br/>squared_error = 0.06<br/>samples = 3<br/>value = 62.9>, fillcolor="#f3c3a0"] ;
148 -> 149 ;
150 [label=<squared_error = 0.0<br/>samples = 1<br/>value = 62.6>, fillcolor="#f3c4a2"] ;
149 -> 150 ;
151 [label=<PC3 &le; -0.705<br/>squared_error = 0.01<br/>samples = 2<br/>value = 63.08>, fillcolor="#f2c2a0"] ;
149 -> 151 ;
152 [label=<squared_error = 0.0<br/>samples = 1<br/>value = 63.2>, fillcolor="#f2c29f"] ;
151 -> 152 ;
153 [label=<squared_error = 0.0<br/>samples = 1<br/>value = 63.0>, fillcolor="#f3c3a0"] ;
151 -> 153 ;
154 [label=<PC7 &le; 0.801<br/>squared_error = 0.002<br/>samples = 2<br/>value = 61.867>, fillcolor="#f3c5a4"] ;
148 -> 154 ;
155 [label=<squared_error = 0.0<br/>samples = 1<br/>value = 61.9>, fillcolor="#f3c5a4"] ;
154 -> 155 ;
156 [label=<squared_error = 0.0<br/>samples = 1<br/>value = 61.8>, fillcolor="#f3c6a5"] ;
154 -> 156 ;
157 [label=<PC1 &le; -2.129<br/>squared_error = 0.297<br/>samples = 5<br/>value = 64.863>, fillcolor="#f2be99"] ;
147 -> 157 ;
158 [label=<PC1 &le; -2.211<br/>squared_error = 0.074<br/>samples = 3<br/>value = 64.48>, fillcolor="#f2bf9a"] ;
157 -> 158 ;
159 [label=<PC1 &le; -2.429<br/>squared_error = 0.002<br/>samples = 2<br/>value = 64.15>, fillcolor="#f2c09b"] ;
158 -> 159 ;
160 [label=<squared_error = 0.0<br/>samples = 1<br/>value = 64.2>, fillcolor="#f2bf9b"] ;
159 -> 160 ;
161 [label=<squared_error = -0.0<br/>samples = 1<br/>value = 64.1>, fillcolor="#f2c09c"] ;
159 -> 161 ;
162 [label=<squared_error = 0.0<br/>samples = 1<br/>value = 64.7>, fillcolor="#f2be99"] ;
158 -> 162 ;
163 [label=<PC5 &le; 1.19<br/>squared_error = 0.02<br/>samples = 2<br/>value = 65.5>, fillcolor="#f1bc96"] ;
157 -> 163 ;
164 [label=<squared_error = 0.0<br/>samples = 1<br/>value = 65.7>, fillcolor="#f1bc95"] ;
163 -> 164 ;
165 [label=<squared_error = -0.0<br/>samples = 1<br/>value = 65.4>, fillcolor="#f1bc96"] ;
163 -> 165 ;
166 [label=<PC2 &le; -0.609<br/>squared_error = 7.248<br/>samples = 21<br/>value = 62.005>, fillcolor="#f3c5a4"] ;
58 -> 166 ;
167 [label=<PC3 &le; 0.48<br/>squared_error = 3.671<br/>samples = 5<br/>value = 57.983>, fillcolor="#f5cfb4"] ;
166 -> 167 ;
168 [label=<PC5 &le; 0.697<br/>squared_error = 0.107<br/>samples = 4<br/>value = 59.325>, fillcolor="#f4ccaf"] ;
167 -> 168 ;
169 [label=<squared_error = 0.0<br/>samples = 2<br/>value = 59.0>, fillcolor="#f5cdb0"] ;
168 -> 169 ;
170 [label=<PC3 &le; -0.173<br/>squared_error = 0.002<br/>samples = 2<br/>value = 59.65>, fillcolor="#f4cbad"] ;
168 -> 170 ;
171 [label=<squared_error = 0.0<br/>samples = 1<br/>value = 59.6>, fillcolor="#f4cbad"] ;
170 -> 171 ;
172 [label=<squared_error = -0.0<br/>samples = 1<br/>value = 59.7>, fillcolor="#f4cbad"] ;
170 -> 172 ;
173 [label=<squared_error = 0.0<br/>samples = 1<br/>value = 55.3>, fillcolor="#f7d6be"] ;
167 -> 173 ;
174 [label=<PC5 &le; 0.489<br/>squared_error = 4.203<br/>samples = 16<br/>value = 62.784>, fillcolor="#f3c3a1"] ;
166 -> 174 ;
175 [label=<PC6 &le; 0.349<br/>squared_error = 4.87<br/>samples = 6<br/>value = 64.66>, fillcolor="#f2be99"] ;
174 -> 175 ;
176 [label=<PC4 &le; -0.904<br/>squared_error = 3.327<br/>samples = 4<br/>value = 65.4>, fillcolor="#f1bc96"] ;
175 -> 176 ;
177 [label=<squared_error = 0.0<br/>samples = 1<br/>value = 62.9>, fillcolor="#f3c3a0"] ;
176 -> 177 ;
178 [label=<PC4 &le; 0.485<br/>squared_error = 1.659<br/>samples = 3<br/>value = 66.233>, fillcolor="#f1ba93"] ;
176 -> 178 ;
179 [label=<PC1 &le; -2.286<br/>squared_error = 0.154<br/>samples = 2<br/>value = 65.68>, fillcolor="#f1bc95"] ;
178 -> 179 ;
180 [label=<squared_error = 0.0<br/>samples = 1<br/>value = 66.0>, fillcolor="#f1bb94"] ;
179 -> 180 ;
181 [label=<squared_error = 0.0<br/>samples = 1<br/>value = 65.2>, fillcolor="#f1bd97"] ;
179 -> 181 ;
182 [label=<squared_error = 0.0<br/>samples = 1<br/>value = 69.0>, fillcolor="#efb388"] ;
178 -> 182 ;
183 [label=<PC7 &le; -0.231<br/>squared_error = 0.09<br/>samples = 2<br/>value = 61.7>, fillcolor="#f3c6a5"] ;
175 -> 183 ;
184 [label=<squared_error = 0.0<br/>samples = 1<br/>value = 62.0>, fillcolor="#f3c5a4"] ;
183 -> 184 ;
185 [label=<squared_error = -0.0<br/>samples = 1<br/>value = 61.4>, fillcolor="#f3c7a6"] ;
183 -> 185 ;
186 [label=<PC6 &le; -0.725<br/>squared_error = 1.41<br/>samples = 10<br/>value = 61.89>, fillcolor="#f3c5a4"] ;
174 -> 186 ;
187 [label=<squared_error = 0.0<br/>samples = 1<br/>value = 58.9>, fillcolor="#f5cdb0"] ;
186 -> 187 ;
188 [label=<PC4 &le; 0.519<br/>squared_error = 0.518<br/>samples = 9<br/>value = 62.205>, fillcolor="#f3c5a3"] ;
186 -> 188 ;
189 [label=<PC5 &le; 0.745<br/>squared_error = 0.695<br/>samples = 4<br/>value = 62.983>, fillcolor="#f3c3a0"] ;
188 -> 189 ;
190 [label=<PC3 &le; -0.16<br/>squared_error = 0.022<br/>samples = 2<br/>value = 64.15>, fillcolor="#f2c09b"] ;
189 -> 190 ;
191 [label=<squared_error = 0.0<br/>samples = 1<br/>value = 64.0>, fillcolor="#f2c09c"] ;
190 -> 191 ;
192 [label=<squared_error = -0.0<br/>samples = 1<br/>value = 64.3>, fillcolor="#f2bf9b"] ;
190 -> 192 ;
193 [label=<PC1 &le; -2.608<br/>squared_error = 0.01<br/>samples = 2<br/>value = 62.4>, fillcolor="#f3c4a2"] ;
189 -> 193 ;
194 [label=<squared_error = 0.0<br/>samples = 1<br/>value = 62.5>, fillcolor="#f3c4a2"] ;
193 -> 194 ;
195 [label=<squared_error = -0.0<br/>samples = 1<br/>value = 62.3>, fillcolor="#f3c4a3"] ;
193 -> 195 ;
196 [label=<PC1 &le; -2.701<br/>squared_error = 0.029<br/>samples = 5<br/>value = 61.846>, fillcolor="#f3c5a5"] ;
188 -> 196 ;
197 [label=<squared_error = 0.0<br/>samples = 1<br/>value = 61.4>, fillcolor="#f3c7a6"] ;
196 -> 197 ;
198 [label=<PC7 &le; 0.702<br/>squared_error = 0.013<br/>samples = 4<br/>value = 61.883>, fillcolor="#f3c5a4"] ;
196 -> 198 ;
199 [label=<PC1 &le; -2.036<br/>squared_error = 0.008<br/>samples = 3<br/>value = 62.0>, fillcolor="#f3c5a4"] ;
198 -> 199 ;
200 [label=<PC1 &le; -2.386<br/>squared_error = 0.002<br/>samples = 2<br/>value = 61.933>, fillcolor="#f3c5a4"] ;
199 -> 200 ;
201 [label=<squared_error = 0.0<br/>samples = 1<br/>value = 62.0>, fillcolor="#f3c5a4"] ;
200 -> 201 ;
202 [label=<squared_error = -0.0<br/>samples = 1<br/>value = 61.9>, fillcolor="#f3c5a4"] ;
200 -> 202 ;
203 [label=<squared_error = 0.0<br/>samples = 1<br/>value = 62.1>, fillcolor="#f3c5a4"] ;
199 -> 203 ;
204 [label=<squared_error = 0.0<br/>samples = 1<br/>value = 61.8>, fillcolor="#f3c6a5"] ;
198 -> 204 ;
205 [label=<PC4 &le; 0.351<br/>squared_error = 0.731<br/>samples = 6<br/>value = 58.378>, fillcolor="#f5ceb2"] ;
57 -> 205 ;
206 [label=<PC2 &le; -1.213<br/>squared_error = 0.212<br/>samples = 3<br/>value = 59.225>, fillcolor="#f4ccaf"] ;
205 -> 206 ;
207 [label=<PC6 &le; -0.323<br/>squared_error = 0.08<br/>samples = 2<br/>value = 59.0>, fillcolor="#f5cdb0"] ;
206 -> 207 ;
208 [label=<squared_error = 0.0<br/>samples = 1<br/>value = 58.6>, fillcolor="#f5ceb1"] ;
207 -> 208 ;
209 [label=<squared_error = 0.0<br/>samples = 1<br/>value = 59.2>, fillcolor="#f4ccaf"] ;
207 -> 209 ;
210 [label=<squared_error = -0.0<br/>samples = 1<br/>value = 59.9>, fillcolor="#f4caac"] ;
206 -> 210 ;
211 [label=<PC3 &le; -0.37<br/>squared_error = 0.112<br/>samples = 3<br/>value = 57.7>, fillcolor="#f5d0b5"] ;
205 -> 211 ;
212 [label=<squared_error = 0.0<br/>samples = 1<br/>value = 58.1>, fillcolor="#f5cfb3"] ;
211 -> 212 ;
213 [label=<PC5 &le; 1.561<br/>squared_error = 0.009<br/>samples = 2<br/>value = 57.433>, fillcolor="#f5d1b6"] ;
211 -> 213 ;
214 [label=<squared_error = 0.0<br/>samples = 1<br/>value = 57.3>, fillcolor="#f5d1b7"] ;
213 -> 214 ;
215 [label=<squared_error = -0.0<br/>samples = 1<br/>value = 57.5>, fillcolor="#f5d0b6"] ;
213 -> 215 ;
216 [label=<PC5 &le; 0.872<br/>squared_error = 17.22<br/>samples = 63<br/>value = 68.092>, fillcolor="#f0b68c"] ;
46 -> 216 ;
217 [label=<PC3 &le; -1.344<br/>squared_error = 11.095<br/>samples = 52<br/>value = 66.783>, fillcolor="#f1b991"] ;
216 -> 217 ;
218 [label=<PC1 &le; -1.872<br/>squared_error = 5.248<br/>samples = 6<br/>value = 71.922>, fillcolor="#eeac7d"] ;
217 -> 218 ;
219 [label=<squared_error = 0.0<br/>samples = 1<br/>value = 65.9>, fillcolor="#f1bb94"] ;
218 -> 219 ;
220 [label=<PC3 &le; -1.536<br/>squared_error = 0.804<br/>samples = 5<br/>value = 72.675>, fillcolor="#edaa7a"] ;
218 -> 220 ;
221 [label=<PC6 &le; -0.721<br/>squared_error = 0.167<br/>samples = 3<br/>value = 72.2>, fillcolor="#eeab7c"] ;
220 -> 221 ;
222 [label=<squared_error = 0.0<br/>samples = 1<br/>value = 71.7>, fillcolor="#eead7e"] ;
221 -> 222 ;
223 [label=<PC1 &le; -1.085<br/>squared_error = 0.062<br/>samples = 2<br/>value = 72.45>, fillcolor="#eeab7b"] ;
221 -> 223 ;
224 [label=<squared_error = 0.0<br/>samples = 1<br/>value = 72.2>, fillcolor="#eeab7c"] ;
223 -> 224 ;
225 [label=<squared_error = 0.0<br/>samples = 1<br/>value = 72.7>, fillcolor="#edaa7a"] ;
223 -> 225 ;
226 [label=<PC1 &le; -1.141<br/>squared_error = 0.01<br/>samples = 2<br/>value = 74.1>, fillcolor="#eda774"] ;
220 -> 226 ;
227 [label=<squared_error = 0.0<br/>samples = 1<br/>value = 74.0>, fillcolor="#eda774"] ;
226 -> 227 ;
228 [label=<squared_error = 0.0<br/>samples = 1<br/>value = 74.2>, fillcolor="#eda674"] ;
226 -> 228 ;
229 [label=<PC2 &le; -0.98<br/>squared_error = 8.158<br/>samples = 46<br/>value = 66.149>, fillcolor="#f1bb93"] ;
217 -> 229 ;
230 [label=<PC3 &le; -0.894<br/>squared_error = 8.593<br/>samples = 24<br/>value = 66.944>, fillcolor="#f0b990"] ;
229 -> 230 ;
231 [label=<PC7 &le; 0.676<br/>squared_error = 5.042<br/>samples = 4<br/>value = 64.327>, fillcolor="#f2bf9b"] ;
230 -> 231 ;
232 [label=<PC2 &le; -1.764<br/>squared_error = 0.706<br/>samples = 2<br/>value = 66.58>, fillcolor="#f1b992"] ;
231 -> 232 ;
233 [label=<squared_error = 0.0<br/>samples = 1<br/>value = 64.9>, fillcolor="#f2be98"] ;
232 -> 233 ;
234 [label=<squared_error = 0.0<br/>samples = 1<br/>value = 67.0>, fillcolor="#f0b890"] ;
232 -> 234 ;
235 [label=<PC4 &le; -0.113<br/>squared_error = 0.903<br/>samples = 2<br/>value = 62.45>, fillcolor="#f3c4a2"] ;
231 -> 235 ;
236 [label=<squared_error = 0.0<br/>samples = 1<br/>value = 61.5>, fillcolor="#f3c6a6"] ;
235 -> 236 ;
237 [label=<squared_error = 0.0<br/>samples = 1<br/>value = 63.4>, fillcolor="#f2c29e"] ;
235 -> 237 ;
238 [label=<PC4 &le; -0.753<br/>squared_error = 6.808<br/>samples = 20<br/>value = 67.791>, fillcolor="#f0b68d"] ;
230 -> 238 ;
239 [label=<PC6 &le; -0.355<br/>squared_error = 2.786<br/>samples = 11<br/>value = 66.627>, fillcolor="#f1b992"] ;
238 -> 239 ;
240 [label=<PC2 &le; -1.05<br/>squared_error = 1.187<br/>samples = 7<br/>value = 65.554>, fillcolor="#f1bc96"] ;
239 -> 240 ;
241 [label=<PC5 &le; 0.67<br/>squared_error = 0.33<br/>samples = 6<br/>value = 65.825>, fillcolor="#f1bb95"] ;
240 -> 241 ;
242 [label=<PC6 &le; -0.518<br/>squared_error = 0.139<br/>samples = 4<br/>value = 65.488>, fillcolor="#f1bc96"] ;
241 -> 242 ;
243 [label=<PC2 &le; -1.161<br/>squared_error = 0.036<br/>samples = 2<br/>value = 65.033>, fillcolor="#f1bd98"] ;
242 -> 243 ;
244 [label=<squared_error = 0.0<br/>samples = 1<br/>value = 64.9>, fillcolor="#f2be98"] ;
243 -> 244 ;
245 [label=<squared_error = -0.0<br/>samples = 1<br/>value = 65.3>, fillcolor="#f1bd97"] ;
243 -> 245 ;
246 [label=<PC2 &le; -1.191<br/>squared_error = 0.002<br/>samples = 2<br/>value = 65.76>, fillcolor="#f1bc95"] ;
242 -> 246 ;
247 [label=<squared_error = 0.0<br/>samples = 1<br/>value = 65.8>, fillcolor="#f1bb95"] ;
246 -> 247 ;
248 [label=<squared_error = 0.0<br/>samples = 1<br/>value = 65.7>, fillcolor="#f1bc95"] ;
246 -> 248 ;
249 [label=<PC6 &le; -0.424<br/>squared_error = 0.03<br/>samples = 2<br/>value = 66.5>, fillcolor="#f1ba92"] ;
241 -> 249 ;
250 [label=<squared_error = 0.0<br/>samples = 1<br/>value = 66.2>, fillcolor="#f1ba93"] ;
249 -> 250 ;
251 [label=<squared_error = -0.0<br/>samples = 1<br/>value = 66.6>, fillcolor="#f1b992"] ;
249 -> 251 ;
252 [label=<squared_error = -0.0<br/>samples = 1<br/>value = 62.3>, fillcolor="#f3c4a3"] ;
240 -> 252 ;
253 [label=<PC4 &le; -1.653<br/>squared_error = 1.026<br/>samples = 4<br/>value = 68.178>, fillcolor="#f0b58b"] ;
239 -> 253 ;
254 [label=<squared_error = 0.0<br/>samples = 1<br/>value = 69.6>, fillcolor="#efb286"] ;
253 -> 254 ;
255 [label=<PC3 &le; -0.025<br/>squared_error = 0.022<br/>samples = 3<br/>value = 67.467>, fillcolor="#f0b78e"] ;
253 -> 255 ;
256 [label=<squared_error = -0.0<br/>samples = 2<br/>value = 67.4>, fillcolor="#f0b78f"] ;
255 -> 256 ;
257 [label=<squared_error = -0.0<br/>samples = 1<br/>value = 67.8>, fillcolor="#f0b68d"] ;
255 -> 257 ;
258 [label=<PC4 &le; 0.447<br/>squared_error = 7.147<br/>samples = 9<br/>value = 69.925>, fillcolor="#efb185"] ;
238 -> 258 ;
259 [label=<PC7 &le; -0.411<br/>squared_error = 0.634<br/>samples = 4<br/>value = 72.48>, fillcolor="#eeab7a"] ;
258 -> 259 ;
260 [label=<squared_error = 0.0<br/>samples = 1<br/>value = 73.8>, fillcolor="#eda775"] ;
259 -> 260 ;
261 [label=<PC3 &le; 0.354<br/>squared_error = 0.248<br/>samples = 3<br/>value = 72.15>, fillcolor="#eeab7c"] ;
259 -> 261 ;
262 [label=<PC1 &le; -1.697<br/>squared_error = 0.09<br/>samples = 2<br/>value = 71.7>, fillcolor="#eead7e"] ;
261 -> 262 ;
263 [label=<squared_error = 0.0<br/>samples = 1<br/>value = 72.0>, fillcolor="#eeac7c"] ;
262 -> 263 ;
264 [label=<squared_error = 0.0<br/>samples = 1<br/>value = 71.4>, fillcolor="#eead7f"] ;
262 -> 264 ;
265 [label=<squared_error = 0.0<br/>samples = 1<br/>value = 72.6>, fillcolor="#eeaa7a"] ;
261 -> 265 ;
266 [label=<PC5 &le; 0.289<br/>squared_error = 3.806<br/>samples = 5<br/>value = 68.1>, fillcolor="#f0b68c"] ;
258 -> 266 ;
267 [label=<squared_error = 0.0<br/>samples = 1<br/>value = 65.1>, fillcolor="#f1bd98"] ;
266 -> 267 ;
268 [label=<PC6 &le; 0.139<br/>squared_error = 0.288<br/>samples = 4<br/>value = 69.3>, fillcolor="#efb387"] ;
266 -> 268 ;
269 [label=<PC5 &le; 0.565<br/>squared_error = 0.009<br/>samples = 2<br/>value = 68.867>, fillcolor="#efb489"] ;
268 -> 269 ;
270 [label=<squared_error = 0.0<br/>samples = 1<br/>value = 69.0>, fillcolor="#efb388"] ;
269 -> 270 ;
271 [label=<squared_error = 0.0<br/>samples = 1<br/>value = 68.8>, fillcolor="#f0b489"] ;
269 -> 271 ;
272 [label=<PC6 &le; 0.191<br/>squared_error = 0.002<br/>samples = 2<br/>value = 69.95>, fillcolor="#efb184"] ;
268 -> 272 ;
273 [label=<squared_error = 0.0<br/>samples = 1<br/>value = 69.9>, fillcolor="#efb185"] ;
272 -> 273 ;
274 [label=<squared_error = 0.0<br/>samples = 1<br/>value = 70.0>, fillcolor="#efb184"] ;
272 -> 274 ;
275 [label=<PC3 &le; 0.371<br/>squared_error = 4.811<br/>samples = 22<br/>value = 64.871>, fillcolor="#f2be99"] ;
229 -> 275 ;
276 [label=<PC1 &le; -1.851<br/>squared_error = 2.914<br/>samples = 9<br/>value = 66.97>, fillcolor="#f0b990"] ;
275 -> 276 ;
277 [label=<squared_error = 0.0<br/>samples = 1<br/>value = 62.4>, fillcolor="#f3c4a2"] ;
276 -> 277 ;
278 [label=<PC2 &le; -0.59<br/>squared_error = 0.66<br/>samples = 8<br/>value = 67.478>, fillcolor="#f0b78e"] ;
276 -> 278 ;
279 [label=<PC2 &le; -0.816<br/>squared_error = 0.143<br/>samples = 5<br/>value = 68.0>, fillcolor="#f0b68c"] ;
278 -> 279 ;
280 [label=<squared_error = 0.0<br/>samples = 1<br/>value = 67.3>, fillcolor="#f0b88f"] ;
279 -> 280 ;
281 [label=<PC6 &le; -0.928<br/>squared_error = 0.054<br/>samples = 4<br/>value = 68.14>, fillcolor="#f0b68c"] ;
279 -> 281 ;
282 [label=<PC4 &le; 1.818<br/>squared_error = 0.009<br/>samples = 2<br/>value = 67.967>, fillcolor="#f0b68c"] ;
281 -> 282 ;
283 [label=<squared_error = 0.0<br/>samples = 1<br/>value = 67.9>, fillcolor="#f0b68d"] ;
282 -> 283 ;
284 [label=<squared_error = -0.0<br/>samples = 1<br/>value = 68.1>, fillcolor="#f0b68c"] ;
282 -> 284 ;
285 [label=<PC7 &le; -0.644<br/>squared_error = 0.01<br/>samples = 2<br/>value = 68.4>, fillcolor="#f0b58b"] ;
281 -> 285 ;
286 [label=<squared_error = 0.0<br/>samples = 1<br/>value = 68.5>, fillcolor="#f0b58a"] ;
285 -> 286 ;
287 [label=<squared_error = -0.0<br/>samples = 1<br/>value = 68.3>, fillcolor="#f0b58b"] ;
285 -> 287 ;
288 [label=<PC5 &le; 0.421<br/>squared_error = 0.056<br/>samples = 3<br/>value = 66.433>, fillcolor="#f1ba92"] ;
278 -> 288 ;
289 [label=<squared_error = 0.0<br/>samples = 1<br/>value = 66.1>, fillcolor="#f1bb94"] ;
288 -> 289 ;
290 [label=<squared_error = 0.0<br/>samples = 2<br/>value = 66.6>, fillcolor="#f1b992"] ;
288 -> 290 ;
291 [label=<PC1 &le; -1.262<br/>squared_error = 2.059<br/>samples = 13<br/>value = 63.706>, fillcolor="#f2c19d"] ;
275 -> 291 ;
292 [label=<PC5 &le; 0.28<br/>squared_error = 0.636<br/>samples = 7<br/>value = 62.63>, fillcolor="#f3c3a1"] ;
291 -> 292 ;
293 [label=<PC4 &le; 0.678<br/>squared_error = 0.352<br/>samples = 4<br/>value = 63.3>, fillcolor="#f2c29f"] ;
292 -> 293 ;
294 [label=<PC2 &le; -0.434<br/>squared_error = 0.128<br/>samples = 3<br/>value = 63.05>, fillcolor="#f2c2a0"] ;
293 -> 294 ;
295 [label=<PC7 &le; -0.302<br/>squared_error = 0.036<br/>samples = 2<br/>value = 63.233>, fillcolor="#f2c29f"] ;
294 -> 295 ;
296 [label=<squared_error = 0.0<br/>samples = 1<br/>value = 63.5>, fillcolor="#f2c19e"] ;
295 -> 296 ;
297 [label=<squared_error = 0.0<br/>samples = 1<br/>value = 63.1>, fillcolor="#f2c2a0"] ;
295 -> 297 ;
298 [label=<squared_error = 0.0<br/>samples = 1<br/>value = 62.5>, fillcolor="#f3c4a2"] ;
294 -> 298 ;
299 [label=<squared_error = -0.0<br/>samples = 1<br/>value = 64.3>, fillcolor="#f2bf9b"] ;
293 -> 299 ;
300 [label=<PC1 &le; -1.389<br/>squared_error = 0.022<br/>samples = 3<br/>value = 61.96>, fillcolor="#f3c5a4"] ;
292 -> 300 ;
301 [label=<PC2 &le; -0.889<br/>squared_error = 0.009<br/>samples = 2<br/>value = 62.067>, fillcolor="#f3c5a4"] ;
300 -> 301 ;
302 [label=<squared_error = 0.0<br/>samples = 1<br/>value = 62.0>, fillcolor="#f3c5a4"] ;
301 -> 302 ;
303 [label=<squared_error = 0.0<br/>samples = 1<br/>value = 62.2>, fillcolor="#f3c5a3"] ;
301 -> 303 ;
304 [label=<squared_error = 0.0<br/>samples = 1<br/>value = 61.8>, fillcolor="#f3c6a5"] ;
300 -> 304 ;
305 [label=<PC5 &le; 0.105<br/>squared_error = 0.585<br/>samples = 6<br/>value = 65.05>, fillcolor="#f1bd98"] ;
291 -> 305 ;
306 [label=<PC1 &le; -1.029<br/>squared_error = 0.058<br/>samples = 4<br/>value = 65.62>, fillcolor="#f1bc96"] ;
305 -> 306 ;
307 [label=<squared_error = 0.0<br/>samples = 1<br/>value = 65.2>, fillcolor="#f1bd97"] ;
306 -> 307 ;
308 [label=<PC6 &le; -0.759<br/>squared_error = 0.017<br/>samples = 3<br/>value = 65.725>, fillcolor="#f1bc95"] ;
306 -> 308 ;
309 [label=<squared_error = 0.0<br/>samples = 1<br/>value = 65.6>, fillcolor="#f1bc96"] ;
308 -> 309 ;
310 [label=<PC6 &le; -0.585<br/>squared_error = 0.003<br/>samples = 2<br/>value = 65.85>, fillcolor="#f1bb95"] ;
308 -> 310 ;
311 [label=<squared_error = 0.0<br/>samples = 1<br/>value = 65.8>, fillcolor="#f1bb95"] ;
310 -> 311 ;
312 [label=<squared_error = 0.0<br/>samples = 1<br/>value = 65.9>, fillcolor="#f1bb94"] ;
310 -> 312 ;
313 [label=<PC3 &le; 0.594<br/>squared_error = 0.02<br/>samples = 2<br/>value = 64.1>, fillcolor="#f2c09c"] ;
305 -> 313 ;
314 [label=<squared_error = 0.0<br/>samples = 1<br/>value = 64.0>, fillcolor="#f2c09c"] ;
313 -> 314 ;
315 [label=<squared_error = -0.0<br/>samples = 1<br/>value = 64.3>, fillcolor="#f2bf9b"] ;
313 -> 315 ;
316 [label=<PC2 &le; -0.937<br/>squared_error = 4.331<br/>samples = 11<br/>value = 73.742>, fillcolor="#eda775"] ;
216 -> 316 ;
317 [label=<PC6 &le; -0.178<br/>squared_error = 2.347<br/>samples = 4<br/>value = 71.762>, fillcolor="#eeac7d"] ;
316 -> 317 ;
318 [label=<PC7 &le; 0.366<br/>squared_error = 0.435<br/>samples = 3<br/>value = 72.583>, fillcolor="#eeaa7a"] ;
317 -> 318 ;
319 [label=<PC2 &le; -1.159<br/>squared_error = 0.152<br/>samples = 2<br/>value = 72.175>, fillcolor="#eeab7c"] ;
318 -> 319 ;
320 [label=<squared_error = 0.0<br/>samples = 1<br/>value = 72.4>, fillcolor="#eeab7b"] ;
319 -> 320 ;
321 [label=<squared_error = -0.0<br/>samples = 1<br/>value = 71.5>, fillcolor="#eead7e"] ;
319 -> 321 ;
322 [label=<squared_error = -0.0<br/>samples = 1<br/>value = 73.4>, fillcolor="#eda877"] ;
318 -> 322 ;
323 [label=<squared_error = 0.0<br/>samples = 1<br/>value = 69.3>, fillcolor="#efb387"] ;
317 -> 323 ;
324 [label=<PC3 &le; -1.062<br/>squared_error = 0.851<br/>samples = 7<br/>value = 75.182>, fillcolor="#eca470"] ;
316 -> 324 ;
325 [label=<PC4 &le; -0.292<br/>squared_error = 0.062<br/>samples = 6<br/>value = 74.9>, fillcolor="#eca571"] ;
324 -> 325 ;
326 [label=<PC6 &le; -0.186<br/>squared_error = 0.016<br/>samples = 3<br/>value = 74.733>, fillcolor="#eca571"] ;
325 -> 326 ;
327 [label=<PC2 &le; -0.821<br/>squared_error = 0.002<br/>samples = 2<br/>value = 74.65>, fillcolor="#eca572"] ;
326 -> 327 ;
328 [label=<squared_error = 0.0<br/>samples = 1<br/>value = 74.6>, fillcolor="#eca572"] ;
327 -> 328 ;
329 [label=<squared_error = -0.0<br/>samples = 1<br/>value = 74.7>, fillcolor="#eca572"] ;
327 -> 329 ;
330 [label=<squared_error = 0.0<br/>samples = 1<br/>value = 74.9>, fillcolor="#eca571"] ;
326 -> 330 ;
331 [label=<PC7 &le; 0.764<br/>squared_error = 0.027<br/>samples = 3<br/>value = 75.15>, fillcolor="#eca470"] ;
325 -> 331 ;
332 [label=<PC3 &le; -1.472<br/>squared_error = 0.01<br/>samples = 2<br/>value = 75.3>, fillcolor="#eca46f"] ;
331 -> 332 ;
333 [label=<squared_error = 0.0<br/>samples = 1<br/>value = 75.4>, fillcolor="#eca36f"] ;
332 -> 333 ;
334 [label=<squared_error = -0.0<br/>samples = 1<br/>value = 75.2>, fillcolor="#eca470"] ;
332 -> 334 ;
335 [label=<squared_error = 0.0<br/>samples = 1<br/>value = 75.0>, fillcolor="#eca470"] ;
331 -> 335 ;
336 [label=<squared_error = 0.0<br/>samples = 1<br/>value = 78.0>, fillcolor="#eb9d65"] ;
324 -> 336 ;
337 [label=<PC2 &le; 0.927<br/>squared_error = 40.911<br/>samples = 279<br/>value = 56.333>, fillcolor="#f6d3ba"] ;
1 -> 337 ;
338 [label=<PC5 &le; -1.232<br/>squared_error = 35.555<br/>samples = 160<br/>value = 58.588>, fillcolor="#f5ceb1"] ;
337 -> 338 ;
339 [label=<PC5 &le; -1.419<br/>squared_error = 33.959<br/>samples = 21<br/>value = 52.38>, fillcolor="#f8ddca"] ;
338 -> 339 ;
340 [label=<PC7 &le; 0.213<br/>squared_error = 22.865<br/>samples = 17<br/>value = 54.545>, fillcolor="#f7d8c1"] ;
339 -> 340 ;
341 [label=<PC2 &le; -0.026<br/>squared_error = 14.164<br/>samples = 11<br/>value = 52.195>, fillcolor="#f8decb"] ;
340 -> 341 ;
342 [label=<PC6 &le; -0.031<br/>squared_error = 0.552<br/>samples = 4<br/>value = 55.25>, fillcolor="#f7d6bf"] ;
341 -> 342 ;
343 [label=<squared_error = 0.0<br/>samples = 1<br/>value = 56.3>, fillcolor="#f6d3ba"] ;
342 -> 343 ;
344 [label=<PC6 &le; 0.464<br/>squared_error = 0.114<br/>samples = 3<br/>value = 54.8>, fillcolor="#f7d7c0"] ;
342 -> 344 ;
345 [label=<squared_error = 0.0<br/>samples = 1<br/>value = 54.0>, fillcolor="#f7d9c4"] ;
344 -> 345 ;
346 [label=<PC3 &le; -1.008<br/>squared_error = 0.009<br/>samples = 2<br/>value = 54.933>, fillcolor="#f7d7c0"] ;
344 -> 346 ;
347 [label=<squared_error = 0.0<br/>samples = 1<br/>value = 54.8>, fillcolor="#f7d7c0"] ;
346 -> 347 ;
348 [label=<squared_error = -0.0<br/>samples = 1<br/>value = 55.0>, fillcolor="#f7d7c0"] ;
346 -> 348 ;
349 [label=<PC3 &le; -0.782<br/>squared_error = 9.11<br/>samples = 7<br/>value = 49.14>, fillcolor="#fae5d7"] ;
341 -> 349 ;
350 [label=<PC7 &le; -0.167<br/>squared_error = 1.26<br/>samples = 5<br/>value = 51.5>, fillcolor="#f8e0ce"] ;
349 -> 350 ;
351 [label=<PC3 &le; -0.968<br/>squared_error = 0.02<br/>samples = 2<br/>value = 52.5>, fillcolor="#f8ddca"] ;
350 -> 351 ;
352 [label=<squared_error = 0.0<br/>samples = 1<br/>value = 52.3>, fillcolor="#f8ddca"] ;
351 -> 352 ;
353 [label=<squared_error = 0.0<br/>samples = 1<br/>value = 52.6>, fillcolor="#f8ddc9"] ;
351 -> 353 ;
354 [label=<PC7 &le; 0.151<br/>squared_error = 0.5<br/>samples = 3<br/>value = 50.5>, fillcolor="#f9e2d1"] ;
350 -> 354 ;
355 [label=<squared_error = 0.0<br/>samples = 2<br/>value = 50.0>, fillcolor="#f9e3d3"] ;
354 -> 355 ;
356 [label=<squared_error = 0.0<br/>samples = 1<br/>value = 51.5>, fillcolor="#f8e0ce"] ;
354 -> 356 ;
357 [label=<PC2 &le; 0.43<br/>squared_error = 0.0<br/>samples = 2<br/>value = 45.6>, fillcolor="#fceee5"] ;
349 -> 357 ;
358 [label=<squared_error = 0.0<br/>samples = 1<br/>value = 45.6>, fillcolor="#fceee5"] ;
357 -> 358 ;
359 [label=<squared_error = 0.0<br/>samples = 1<br/>value = 45.6>, fillcolor="#fceee5"] ;
357 -> 359 ;
360 [label=<PC7 &le; 0.278<br/>squared_error = 10.383<br/>samples = 6<br/>value = 58.818>, fillcolor="#f5cdb1"] ;
340 -> 360 ;
361 [label=<squared_error = 0.0<br/>samples = 1<br/>value = 65.0>, fillcolor="#f1bd98"] ;
360 -> 361 ;
362 [label=<PC5 &le; -1.942<br/>squared_error = 2.311<br/>samples = 5<br/>value = 57.444>, fillcolor="#f5d1b6"] ;
360 -> 362 ;
363 [label=<PC3 &le; -1.118<br/>squared_error = 0.17<br/>samples = 3<br/>value = 59.0>, fillcolor="#f5cdb0"] ;
362 -> 363 ;
364 [label=<squared_error = 0.0<br/>samples = 1<br/>value = 59.7>, fillcolor="#f4cbad"] ;
363 -> 364 ;
365 [label=<PC2 &le; 0.497<br/>squared_error = 0.009<br/>samples = 2<br/>value = 58.767>, fillcolor="#f5cdb1"] ;
363 -> 365 ;
366 [label=<squared_error = 0.0<br/>samples = 1<br/>value = 58.7>, fillcolor="#f5cdb1"] ;
365 -> 366 ;
367 [label=<squared_error = -0.0<br/>samples = 1<br/>value = 58.9>, fillcolor="#f5cdb0"] ;
365 -> 367 ;
368 [label=<PC5 &le; -1.651<br/>squared_error = 0.54<br/>samples = 2<br/>value = 56.2>, fillcolor="#f6d4bb"] ;
362 -> 368 ;
369 [label=<squared_error = 0.0<br/>samples = 1<br/>value = 55.3>, fillcolor="#f7d6be"] ;
368 -> 369 ;
370 [label=<squared_error = -0.0<br/>samples = 1<br/>value = 56.8>, fillcolor="#f6d2b9"] ;
368 -> 370 ;
371 [label=<PC4 &le; 0.171<br/>squared_error = 8.792<br/>samples = 4<br/>value = 45.67>, fillcolor="#fceee5"] ;
339 -> 371 ;
372 [label=<PC3 &le; -1.372<br/>squared_error = 0.518<br/>samples = 2<br/>value = 42.94>, fillcolor="#fdf5ef"] ;
371 -> 372 ;
373 [label=<squared_error = 0.0<br/>samples = 1<br/>value = 43.3>, fillcolor="#fdf4ee"] ;
372 -> 373 ;
374 [label=<squared_error = -0.0<br/>samples = 1<br/>value = 41.5>, fillcolor="#fef9f5"] ;
372 -> 374 ;
375 [label=<PC4 &le; 0.536<br/>squared_error = 2.16<br/>samples = 2<br/>value = 48.4>, fillcolor="#fae7da"] ;
371 -> 375 ;
376 [label=<squared_error = 0.0<br/>samples = 1<br/>value = 46.6>, fillcolor="#fbece1"] ;
375 -> 376 ;
377 [label=<squared_error = 0.0<br/>samples = 1<br/>value = 49.6>, fillcolor="#f9e4d5"] ;
375 -> 377 ;
378 [label=<PC1 &le; -2.257<br/>squared_error = 27.42<br/>samples = 139<br/>value = 59.734>, fillcolor="#f4cbad"] ;
338 -> 378 ;
379 [label=<PC1 &le; -3.8<br/>squared_error = 18.112<br/>samples = 96<br/>value = 57.82>, fillcolor="#f5d0b4"] ;
378 -> 379 ;
380 [label=<PC2 &le; 0.502<br/>squared_error = 4.416<br/>samples = 13<br/>value = 52.947>, fillcolor="#f8dcc8"] ;
379 -> 380 ;
381 [label=<PC3 &le; -0.008<br/>squared_error = 3.916<br/>samples = 6<br/>value = 54.467>, fillcolor="#f7d8c2"] ;
380 -> 381 ;
382 [label=<PC7 &le; 0.033<br/>squared_error = 0.126<br/>samples = 3<br/>value = 55.733>, fillcolor="#f6d5bd"] ;
381 -> 382 ;
383 [label=<squared_error = 0.0<br/>samples = 1<br/>value = 55.0>, fillcolor="#f7d7c0"] ;
382 -> 383 ;
384 [label=<PC2 &le; -0.039<br/>squared_error = 0.022<br/>samples = 2<br/>value = 55.88>, fillcolor="#f6d4bc"] ;
382 -> 384 ;
385 [label=<squared_error = 0.0<br/>samples = 1<br/>value = 56.0>, fillcolor="#f6d4bc"] ;
384 -> 385 ;
386 [label=<squared_error = 0.0<br/>samples = 1<br/>value = 55.7>, fillcolor="#f6d5bd"] ;
384 -> 386 ;
387 [label=<PC1 &le; -4.172<br/>squared_error = 1.869<br/>samples = 3<br/>value = 51.933>, fillcolor="#f8decc"] ;
381 -> 387 ;
388 [label=<squared_error = 0.0<br/>samples = 1<br/>value = 50.0>, fillcolor="#f9e3d3"] ;
387 -> 388 ;
389 [label=<squared_error = -0.0<br/>samples = 2<br/>value = 52.9>, fillcolor="#f8dcc8"] ;
387 -> 389 ;
390 [label=<PC2 &le; 0.897<br/>squared_error = 0.92<br/>samples = 7<br/>value = 51.58>, fillcolor="#f8dfcd"] ;
380 -> 390 ;
391 [label=<PC7 &le; 0.431<br/>squared_error = 0.518<br/>samples = 6<br/>value = 51.356>, fillcolor="#f9e0ce"] ;
390 -> 391 ;
392 [label=<PC3 &le; -0.382<br/>squared_error = 0.149<br/>samples = 5<br/>value = 51.575>, fillcolor="#f8dfcd"] ;
391 -> 392 ;
393 [label=<squared_error = 0.0<br/>samples = 1<br/>value = 52.1>, fillcolor="#f8decb"] ;
392 -> 393 ;
394 [label=<PC3 &le; 0.833<br/>squared_error = 0.077<br/>samples = 4<br/>value = 51.4>, fillcolor="#f9e0ce"] ;
392 -> 394 ;
395 [label=<PC1 &le; -4.562<br/>squared_error = 0.006<br/>samples = 3<br/>value = 51.28>, fillcolor="#f9e0ce"] ;
394 -> 395 ;
396 [label=<squared_error = 0.0<br/>samples = 1<br/>value = 51.2>, fillcolor="#f9e0cf"] ;
395 -> 396 ;
397 [label=<PC3 &le; 0.213<br/>squared_error = 0.002<br/>samples = 2<br/>value = 51.333>, fillcolor="#f9e0ce"] ;
395 -> 397 ;
398 [label=<squared_error = 0.0<br/>samples = 1<br/>value = 51.3>, fillcolor="#f9e0ce"] ;
397 -> 398 ;
399 [label=<squared_error = -0.0<br/>samples = 1<br/>value = 51.4>, fillcolor="#f9e0ce"] ;
397 -> 399 ;
400 [label=<squared_error = 0.0<br/>samples = 1<br/>value = 52.0>, fillcolor="#f8decc"] ;
394 -> 400 ;
401 [label=<squared_error = -0.0<br/>samples = 1<br/>value = 49.6>, fillcolor="#f9e4d5"] ;
391 -> 401 ;
402 [label=<squared_error = 0.0<br/>samples = 1<br/>value = 53.6>, fillcolor="#f7dac5"] ;
390 -> 402 ;
403 [label=<PC6 &le; 0.873<br/>squared_error = 16.228<br/>samples = 83<br/>value = 58.506>, fillcolor="#f5ceb2"] ;
379 -> 403 ;
404 [label=<PC3 &le; -0.09<br/>squared_error = 13.89<br/>samples = 82<br/>value = 58.702>, fillcolor="#f5cdb1"] ;
403 -> 404 ;
405 [label=<PC5 &le; 0.869<br/>squared_error = 11.883<br/>samples = 24<br/>value = 60.933>, fillcolor="#f4c8a8"] ;
404 -> 405 ;
406 [label=<PC1 &le; -2.51<br/>squared_error = 6.904<br/>samples = 23<br/>value = 61.572>, fillcolor="#f3c6a6"] ;
405 -> 406 ;
407 [label=<PC7 &le; -0.011<br/>squared_error = 4.182<br/>samples = 21<br/>value = 61.064>, fillcolor="#f4c7a8"] ;
406 -> 407 ;
408 [label=<PC7 &le; -0.157<br/>squared_error = 3.556<br/>samples = 16<br/>value = 61.603>, fillcolor="#f3c6a5"] ;
407 -> 408 ;
409 [label=<PC1 &le; -3.069<br/>squared_error = 2.322<br/>samples = 14<br/>value = 61.342>, fillcolor="#f3c7a7"] ;
408 -> 409 ;
410 [label=<PC4 &le; 0.657<br/>squared_error = 0.591<br/>samples = 5<br/>value = 59.3>, fillcolor="#f4ccaf"] ;
409 -> 410 ;
411 [label=<PC7 &le; -0.661<br/>squared_error = 0.247<br/>samples = 3<br/>value = 58.5>, fillcolor="#f5ceb2"] ;
410 -> 411 ;
412 [label=<squared_error = 0.0<br/>samples = 1<br/>value = 57.8>, fillcolor="#f5d0b5"] ;
411 -> 412 ;
413 [label=<PC7 &le; -0.521<br/>squared_error = 0.002<br/>samples = 2<br/>value = 58.85>, fillcolor="#f5cdb0"] ;
411 -> 413 ;
414 [label=<squared_error = 0.0<br/>samples = 1<br/>value = 58.8>, fillcolor="#f5cdb1"] ;
413 -> 414 ;
415 [label=<squared_error = 0.0<br/>samples = 1<br/>value = 58.9>, fillcolor="#f5cdb0"] ;
413 -> 415 ;
416 [label=<PC3 &le; -0.34<br/>squared_error = 0.01<br/>samples = 2<br/>value = 59.9>, fillcolor="#f4caac"] ;
410 -> 416 ;
417 [label=<squared_error = 0.0<br/>samples = 1<br/>value = 59.8>, fillcolor="#f4cbad"] ;
416 -> 417 ;
418 [label=<squared_error = -0.0<br/>samples = 1<br/>value = 60.0>, fillcolor="#f4caac"] ;
416 -> 418 ;
419 [label=<PC2 &le; 0.811<br/>squared_error = 0.856<br/>samples = 9<br/>value = 62.095>, fillcolor="#f3c5a4"] ;
409 -> 419 ;
420 [label=<PC7 &le; -0.753<br/>squared_error = 0.378<br/>samples = 8<br/>value = 62.261>, fillcolor="#f3c4a3"] ;
419 -> 420 ;
421 [label=<PC6 &le; 0.574<br/>squared_error = 0.036<br/>samples = 4<br/>value = 62.6>, fillcolor="#f3c4a2"] ;
420 -> 421 ;
422 [label=<PC1 &le; -3.009<br/>squared_error = 0.017<br/>samples = 3<br/>value = 62.525>, fillcolor="#f3c4a2"] ;
421 -> 422 ;
423 [label=<squared_error = 0.0<br/>samples = 1<br/>value = 62.3>, fillcolor="#f3c4a3"] ;
422 -> 423 ;
424 [label=<squared_error = 0.0<br/>samples = 2<br/>value = 62.6>, fillcolor="#f3c4a2"] ;
422 -> 424 ;
425 [label=<squared_error = -0.0<br/>samples = 1<br/>value = 62.9>, fillcolor="#f3c3a0"] ;
421 -> 425 ;
426 [label=<PC1 &le; -2.7<br/>squared_error = 0.482<br/>samples = 4<br/>value = 61.838>, fillcolor="#f3c5a5"] ;
420 -> 426 ;
427 [label=<PC1 &le; -2.797<br/>squared_error = 0.042<br/>samples = 3<br/>value = 61.45>, fillcolor="#f3c6a6"] ;
426 -> 427 ;
428 [label=<squared_error = 0.0<br/>samples = 1<br/>value = 61.2>, fillcolor="#f3c7a7"] ;
427 -> 428 ;
429 [label=<PC5 &le; 0.416<br/>squared_error = 0.017<br/>samples = 2<br/>value = 61.575>, fillcolor="#f3c6a6"] ;
427 -> 429 ;
430 [label=<squared_error = 0.0<br/>samples = 1<br/>value = 61.5>, fillcolor="#f3c6a6"] ;
429 -> 430 ;
431 [label=<squared_error = -0.0<br/>samples = 1<br/>value = 61.8>, fillcolor="#f3c6a5"] ;
429 -> 431 ;
432 [label=<squared_error = -0.0<br/>samples = 1<br/>value = 63.0>, fillcolor="#f3c3a0"] ;
426 -> 432 ;
433 [label=<squared_error = 0.0<br/>samples = 1<br/>value = 59.1>, fillcolor="#f5ccaf"] ;
419 -> 433 ;
434 [label=<PC2 &le; 0.147<br/>squared_error = 8.542<br/>samples = 2<br/>value = 63.867>, fillcolor="#f2c09d"] ;
408 -> 434 ;
435 [label=<squared_error = 0.0<br/>samples = 1<br/>value = 61.8>, fillcolor="#f3c6a5"] ;
434 -> 435 ;
436 [label=<squared_error = 0.0<br/>samples = 1<br/>value = 68.0>, fillcolor="#f0b68c"] ;
434 -> 436 ;
437 [label=<PC5 &le; 0.216<br/>squared_error = 0.571<br/>samples = 5<br/>value = 58.829>, fillcolor="#f5cdb0"] ;
407 -> 437 ;
438 [label=<squared_error = 0.0<br/>samples = 1<br/>value = 57.5>, fillcolor="#f5d0b6"] ;
437 -> 438 ;
439 [label=<PC6 &le; -0.335<br/>squared_error = 0.323<br/>samples = 4<br/>value = 59.05>, fillcolor="#f5ccb0"] ;
437 -> 439 ;
440 [label=<PC1 &le; -2.734<br/>squared_error = 0.002<br/>samples = 2<br/>value = 58.65>, fillcolor="#f5cdb1"] ;
439 -> 440 ;
441 [label=<squared_error = 0.0<br/>samples = 1<br/>value = 58.7>, fillcolor="#f5cdb1"] ;
440 -> 441 ;
442 [label=<squared_error = -0.0<br/>samples = 1<br/>value = 58.6>, fillcolor="#f5ceb1"] ;
440 -> 442 ;
443 [label=<PC6 &le; -0.081<br/>squared_error = 0.003<br/>samples = 2<br/>value = 59.85>, fillcolor="#f4caac"] ;
439 -> 443 ;
444 [label=<squared_error = 0.0<br/>samples = 1<br/>value = 59.9>, fillcolor="#f4caac"] ;
443 -> 444 ;
445 [label=<squared_error = 0.0<br/>samples = 1<br/>value = 59.8>, fillcolor="#f4cbad"] ;
443 -> 445 ;
446 [label=<PC5 &le; 0.045<br/>squared_error = 8.123<br/>samples = 2<br/>value = 66.15>, fillcolor="#f1bb93"] ;
406 -> 446 ;
447 [label=<squared_error = 0.0<br/>samples = 1<br/>value = 63.3>, fillcolor="#f2c29f"] ;
446 -> 447 ;
448 [label=<squared_error = -0.0<br/>samples = 1<br/>value = 69.0>, fillcolor="#efb388"] ;
446 -> 448 ;
449 [label=<squared_error = -0.0<br/>samples = 1<br/>value = 52.4>, fillcolor="#f8ddca"] ;
405 -> 449 ;
450 [label=<PC4 &le; -0.918<br/>squared_error = 11.335<br/>samples = 58<br/>value = 57.636>, fillcolor="#f5d0b5"] ;
404 -> 450 ;
451 [label=<PC2 &le; 0.451<br/>squared_error = 12.178<br/>samples = 15<br/>value = 60.435>, fillcolor="#f4c9aa"] ;
450 -> 451 ;
452 [label=<PC4 &le; -1.039<br/>squared_error = 10.348<br/>samples = 7<br/>value = 63.283>, fillcolor="#f2c29f"] ;
451 -> 452 ;
453 [label=<squared_error = 0.0<br/>samples = 1<br/>value = 67.0>, fillcolor="#f0b890"] ;
452 -> 453 ;
454 [label=<PC4 &le; -1.0<br/>squared_error = 7.658<br/>samples = 6<br/>value = 62.044>, fillcolor="#f3c5a4"] ;
452 -> 454 ;
455 [label=<PC6 &le; 0.25<br/>squared_error = 0.003<br/>samples = 2<br/>value = 58.85>, fillcolor="#f5cdb0"] ;
454 -> 455 ;
456 [label=<squared_error = 0.0<br/>samples = 1<br/>value = 58.8>, fillcolor="#f5cdb1"] ;
455 -> 456 ;
457 [label=<squared_error = 0.0<br/>samples = 1<br/>value = 58.9>, fillcolor="#f5cdb0"] ;
455 -> 457 ;
458 [label=<PC6 &le; 0.501<br/>squared_error = 6.097<br/>samples = 4<br/>value = 62.957>, fillcolor="#f3c3a0"] ;
454 -> 458 ;
459 [label=<PC7 &le; -0.492<br/>squared_error = 0.012<br/>samples = 3<br/>value = 61.95>, fillcolor="#f3c5a4"] ;
458 -> 459 ;
460 [label=<squared_error = 0.0<br/>samples = 1<br/>value = 61.8>, fillcolor="#f3c6a5"] ;
459 -> 460 ;
461 [label=<PC3 &le; 1.055<br/>squared_error = 0.002<br/>samples = 2<br/>value = 62.025>, fillcolor="#f3c5a4"] ;
459 -> 461 ;
462 [label=<squared_error = 0.0<br/>samples = 1<br/>value = 62.1>, fillcolor="#f3c5a4"] ;
461 -> 462 ;
463 [label=<squared_error = 0.0<br/>samples = 1<br/>value = 62.0>, fillcolor="#f3c5a4"] ;
461 -> 463 ;
464 [label=<squared_error = 0.0<br/>samples = 1<br/>value = 69.0>, fillcolor="#efb388"] ;
458 -> 464 ;
465 [label=<PC7 &le; -0.573<br/>squared_error = 0.829<br/>samples = 8<br/>value = 57.993>, fillcolor="#f5cfb4"] ;
451 -> 465 ;
466 [label=<squared_error = 0.0<br/>samples = 1<br/>value = 59.8>, fillcolor="#f4cbad"] ;
465 -> 466 ;
467 [label=<PC2 &le; 0.869<br/>squared_error = 0.332<br/>samples = 7<br/>value = 57.692>, fillcolor="#f5d0b5"] ;
465 -> 467 ;
468 [label=<PC5 &le; -0.467<br/>squared_error = 0.164<br/>samples = 5<br/>value = 57.286>, fillcolor="#f5d1b7"] ;
467 -> 468 ;
469 [label=<PC4 &le; -1.552<br/>squared_error = 0.03<br/>samples = 3<br/>value = 57.6>, fillcolor="#f5d0b5"] ;
468 -> 469 ;
470 [label=<squared_error = 0.0<br/>samples = 1<br/>value = 57.3>, fillcolor="#f5d1b7"] ;
469 -> 470 ;
471 [label=<squared_error = -0.0<br/>samples = 2<br/>value = 57.7>, fillcolor="#f5d0b5"] ;
469 -> 471 ;
472 [label=<PC1 &le; -2.662<br/>squared_error = 0.036<br/>samples = 2<br/>value = 56.867>, fillcolor="#f6d2b8"] ;
468 -> 472 ;
473 [label=<squared_error = 0.0<br/>samples = 1<br/>value = 56.6>, fillcolor="#f6d3b9"] ;
472 -> 473 ;
474 [label=<squared_error = 0.0<br/>samples = 1<br/>value = 57.0>, fillcolor="#f6d2b8"] ;
472 -> 474 ;
475 [label=<PC3 &le; 0.456<br/>squared_error = 0.014<br/>samples = 2<br/>value = 58.26>, fillcolor="#f5ceb3"] ;
467 -> 475 ;
476 [label=<squared_error = 0.0<br/>samples = 1<br/>value = 58.2>, fillcolor="#f5cfb3"] ;
475 -> 476 ;
477 [label=<squared_error = -0.0<br/>samples = 1<br/>value = 58.5>, fillcolor="#f5ceb2"] ;
475 -> 477 ;
478 [label=<PC1 &le; -2.884<br/>squared_error = 6.516<br/>samples = 43<br/>value = 56.498>, fillcolor="#f6d3ba"] ;
450 -> 478 ;
479 [label=<PC3 &le; 0.532<br/>squared_error = 3.565<br/>samples = 26<br/>value = 55.37>, fillcolor="#f6d6be"] ;
478 -> 479 ;
480 [label=<PC7 &le; -0.399<br/>squared_error = 1.531<br/>samples = 21<br/>value = 55.997>, fillcolor="#f6d4bc"] ;
479 -> 480 ;
481 [label=<PC2 &le; 0.111<br/>squared_error = 1.21<br/>samples = 13<br/>value = 56.589>, fillcolor="#f6d3b9"] ;
480 -> 481 ;
482 [label=<PC1 &le; -3.138<br/>squared_error = 0.262<br/>samples = 3<br/>value = 57.92>, fillcolor="#f5cfb4"] ;
481 -> 482 ;
483 [label=<squared_error = 0.0<br/>samples = 1<br/>value = 57.3>, fillcolor="#f5d1b7"] ;
482 -> 483 ;
484 [label=<PC7 &le; -0.467<br/>squared_error = 0.009<br/>samples = 2<br/>value = 58.333>, fillcolor="#f5ceb2"] ;
482 -> 484 ;
485 [label=<squared_error = 0.0<br/>samples = 1<br/>value = 58.4>, fillcolor="#f5ceb2"] ;
484 -> 485 ;
486 [label=<squared_error = 0.0<br/>samples = 1<br/>value = 58.2>, fillcolor="#f5cfb3"] ;
484 -> 486 ;
487 [label=<PC6 &le; 0.56<br/>squared_error = 0.631<br/>samples = 10<br/>value = 56.077>, fillcolor="#f6d4bb"] ;
481 -> 487 ;
488 [label=<PC7 &le; -0.453<br/>squared_error = 0.118<br/>samples = 6<br/>value = 56.533>, fillcolor="#f6d3ba"] ;
487 -> 488 ;
489 [label=<PC1 &le; -3.65<br/>squared_error = 0.01<br/>samples = 5<br/>value = 56.65>, fillcolor="#f6d3b9"] ;
488 -> 489 ;
490 [label=<squared_error = 0.0<br/>samples = 1<br/>value = 56.4>, fillcolor="#f6d3ba"] ;
489 -> 490 ;
491 [label=<PC3 &le; 0.429<br/>squared_error = 0.001<br/>samples = 4<br/>value = 56.686>, fillcolor="#f6d2b9"] ;
489 -> 491 ;
492 [label=<squared_error = -0.0<br/>samples = 3<br/>value = 56.7>, fillcolor="#f6d2b9"] ;
491 -> 492 ;
493 [label=<squared_error = -0.0<br/>samples = 1<br/>value = 56.6>, fillcolor="#f6d3b9"] ;
491 -> 493 ;
494 [label=<squared_error = 0.0<br/>samples = 1<br/>value = 55.6>, fillcolor="#f6d5bd"] ;
488 -> 494 ;
495 [label=<PC6 &le; 0.651<br/>squared_error = 0.262<br/>samples = 4<br/>value = 55.05>, fillcolor="#f7d7bf"] ;
487 -> 495 ;
496 [label=<PC2 &le; 0.811<br/>squared_error = 0.029<br/>samples = 3<br/>value = 54.767>, fillcolor="#f7d7c1"] ;
495 -> 496 ;
497 [label=<PC1 &le; -3.018<br/>squared_error = 0.002<br/>samples = 2<br/>value = 54.65>, fillcolor="#f7d8c1"] ;
496 -> 497 ;
498 [label=<squared_error = 0.0<br/>samples = 1<br/>value = 54.6>, fillcolor="#f7d8c1"] ;
497 -> 498 ;
499 [label=<squared_error = -0.0<br/>samples = 1<br/>value = 54.7>, fillcolor="#f7d7c1"] ;
497 -> 499 ;
500 [label=<squared_error = 0.0<br/>samples = 1<br/>value = 55.0>, fillcolor="#f7d7c0"] ;
496 -> 500 ;
501 [label=<squared_error = -0.0<br/>samples = 1<br/>value = 55.9>, fillcolor="#f6d4bc"] ;
495 -> 501 ;
502 [label=<PC3 &le; 0.329<br/>squared_error = 0.544<br/>samples = 8<br/>value = 55.027>, fillcolor="#f7d7c0"] ;
480 -> 502 ;
503 [label=<PC5 &le; 0.041<br/>squared_error = 0.106<br/>samples = 6<br/>value = 55.322>, fillcolor="#f7d6be"] ;
502 -> 503 ;
504 [label=<PC3 &le; 0.045<br/>squared_error = 0.018<br/>samples = 3<br/>value = 55.54>, fillcolor="#f6d5be"] ;
503 -> 504 ;
505 [label=<squared_error = 0.0<br/>samples = 1<br/>value = 55.8>, fillcolor="#f6d5bc"] ;
504 -> 505 ;
506 [label=<PC5 &le; -0.109<br/>squared_error = 0.002<br/>samples = 2<br/>value = 55.475>, fillcolor="#f6d5be"] ;
504 -> 506 ;
507 [label=<squared_error = 0.0<br/>samples = 1<br/>value = 55.4>, fillcolor="#f6d6be"] ;
506 -> 507 ;
508 [label=<squared_error = 0.0<br/>samples = 1<br/>value = 55.5>, fillcolor="#f6d5be"] ;
506 -> 508 ;
509 [label=<PC4 &le; 0.562<br/>squared_error = 0.083<br/>samples = 3<br/>value = 55.05>, fillcolor="#f7d7bf"] ;
503 -> 509 ;
510 [label=<PC1 &le; -3.58<br/>squared_error = 0.02<br/>samples = 2<br/>value = 54.9>, fillcolor="#f7d7c0"] ;
509 -> 510 ;
511 [label=<squared_error = 0.0<br/>samples = 1<br/>value = 54.7>, fillcolor="#f7d7c1"] ;
510 -> 511 ;
512 [label=<squared_error = 0.0<br/>samples = 1<br/>value = 55.0>, fillcolor="#f7d7c0"] ;
510 -> 512 ;
513 [label=<squared_error = 0.0<br/>samples = 1<br/>value = 55.5>, fillcolor="#f6d5be"] ;
509 -> 513 ;
514 [label=<PC1 &le; -3.05<br/>squared_error = 0.36<br/>samples = 2<br/>value = 53.7>, fillcolor="#f7dac5"] ;
502 -> 514 ;
515 [label=<squared_error = 0.0<br/>samples = 1<br/>value = 53.1>, fillcolor="#f8dbc7"] ;
514 -> 515 ;
516 [label=<squared_error = 0.0<br/>samples = 1<br/>value = 54.3>, fillcolor="#f7d8c2"] ;
514 -> 516 ;
517 [label=<PC3 &le; 0.892<br/>squared_error = 4.362<br/>samples = 5<br/>value = 53.1>, fillcolor="#f8dbc7"] ;
479 -> 517 ;
518 [label=<PC2 &le; 0.655<br/>squared_error = 1.066<br/>samples = 4<br/>value = 52.4>, fillcolor="#f8ddca"] ;
517 -> 518 ;
519 [label=<PC7 &le; -0.623<br/>squared_error = 0.028<br/>samples = 3<br/>value = 52.817>, fillcolor="#f8dcc8"] ;
518 -> 519 ;
520 [label=<PC6 &le; -0.159<br/>squared_error = 0.01<br/>samples = 2<br/>value = 52.88>, fillcolor="#f8dcc8"] ;
519 -> 520 ;
521 [label=<squared_error = 0.0<br/>samples = 1<br/>value = 52.8>, fillcolor="#f8dcc8"] ;
520 -> 521 ;
522 [label=<squared_error = 0.0<br/>samples = 1<br/>value = 53.0>, fillcolor="#f8dcc8"] ;
520 -> 522 ;
523 [label=<squared_error = -0.0<br/>samples = 1<br/>value = 52.5>, fillcolor="#f8ddca"] ;
519 -> 523 ;
524 [label=<squared_error = 0.0<br/>samples = 1<br/>value = 49.9>, fillcolor="#f9e4d4"] ;
518 -> 524 ;
525 [label=<squared_error = 0.0<br/>samples = 1<br/>value = 58.0>, fillcolor="#f5cfb4"] ;
517 -> 525 ;
526 [label=<PC5 &le; 0.733<br/>squared_error = 6.425<br/>samples = 17<br/>value = 58.044>, fillcolor="#f5cfb4"] ;
478 -> 526 ;
527 [label=<PC2 &le; -0.302<br/>squared_error = 2.651<br/>samples = 16<br/>value = 58.608>, fillcolor="#f5ceb1"] ;
526 -> 527 ;
528 [label=<squared_error = 0.0<br/>samples = 1<br/>value = 63.0>, fillcolor="#f3c3a0"] ;
527 -> 528 ;
529 [label=<PC1 &le; -2.484<br/>squared_error = 1.058<br/>samples = 15<br/>value = 58.226>, fillcolor="#f5cfb3"] ;
527 -> 529 ;
530 [label=<PC2 &le; 0.253<br/>squared_error = 0.456<br/>samples = 10<br/>value = 57.828>, fillcolor="#f5d0b4"] ;
529 -> 530 ;
531 [label=<PC2 &le; -0.153<br/>squared_error = 0.138<br/>samples = 4<br/>value = 58.514>, fillcolor="#f5ceb2"] ;
530 -> 531 ;
532 [label=<squared_error = 0.0<br/>samples = 1<br/>value = 59.3>, fillcolor="#f4ccaf"] ;
531 -> 532 ;
533 [label=<PC1 &le; -2.677<br/>squared_error = 0.041<br/>samples = 3<br/>value = 58.383>, fillcolor="#f5ceb2"] ;
531 -> 533 ;
534 [label=<squared_error = 0.0<br/>samples = 1<br/>value = 58.0>, fillcolor="#f5cfb4"] ;
533 -> 534 ;
535 [label=<PC3 &le; -0.002<br/>squared_error = 0.014<br/>samples = 2<br/>value = 58.46>, fillcolor="#f5ceb2"] ;
533 -> 535 ;
536 [label=<squared_error = 0.0<br/>samples = 1<br/>value = 58.7>, fillcolor="#f5cdb1"] ;
535 -> 536 ;
537 [label=<squared_error = -0.0<br/>samples = 1<br/>value = 58.4>, fillcolor="#f5ceb2"] ;
535 -> 537 ;
538 [label=<PC7 &le; -0.276<br/>squared_error = 0.168<br/>samples = 6<br/>value = 57.391>, fillcolor="#f5d1b6"] ;
530 -> 538 ;
539 [label=<PC7 &le; -0.763<br/>squared_error = 0.069<br/>samples = 5<br/>value = 57.233>, fillcolor="#f6d1b7"] ;
538 -> 539 ;
540 [label=<PC1 &le; -2.625<br/>squared_error = 0.002<br/>samples = 3<br/>value = 57.371>, fillcolor="#f5d1b6"] ;
539 -> 540 ;
541 [label=<squared_error = 0.0<br/>samples = 1<br/>value = 57.3>, fillcolor="#f5d1b7"] ;
540 -> 541 ;
542 [label=<squared_error = 0.0<br/>samples = 2<br/>value = 57.4>, fillcolor="#f5d1b6"] ;
540 -> 542 ;
543 [label=<PC1 &le; -2.76<br/>squared_error = 0.002<br/>samples = 2<br/>value = 56.75>, fillcolor="#f6d2b9"] ;
539 -> 543 ;
544 [label=<squared_error = 0.0<br/>samples = 1<br/>value = 56.8>, fillcolor="#f6d2b9"] ;
543 -> 544 ;
545 [label=<squared_error = 0.0<br/>samples = 1<br/>value = 56.7>, fillcolor="#f6d2b9"] ;
543 -> 545 ;
546 [label=<squared_error = -0.0<br/>samples = 1<br/>value = 58.1>, fillcolor="#f5cfb3"] ;
538 -> 546 ;
547 [label=<PC7 &le; -1.177<br/>squared_error = 0.598<br/>samples = 5<br/>value = 59.66>, fillcolor="#f4cbad"] ;
529 -> 547 ;
548 [label=<squared_error = 0.0<br/>samples = 1<br/>value = 61.1>, fillcolor="#f4c7a7"] ;
547 -> 548 ;
549 [label=<PC2 &le; -0.063<br/>squared_error = 0.1<br/>samples = 4<br/>value = 59.3>, fillcolor="#f4ccaf"] ;
547 -> 549 ;
550 [label=<PC5 &le; 0.408<br/>squared_error = 0.01<br/>samples = 2<br/>value = 59.6>, fillcolor="#f4cbad"] ;
549 -> 550 ;
551 [label=<squared_error = 0.0<br/>samples = 1<br/>value = 59.5>, fillcolor="#f4cbae"] ;
550 -> 551 ;
552 [label=<squared_error = 0.0<br/>samples = 1<br/>value = 59.7>, fillcolor="#f4cbad"] ;
550 -> 552 ;
553 [label=<PC6 &le; 0.312<br/>squared_error = 0.01<br/>samples = 2<br/>value = 59.0>, fillcolor="#f5cdb0"] ;
549 -> 553 ;
554 [label=<squared_error = 0.0<br/>samples = 1<br/>value = 59.1>, fillcolor="#f5ccaf"] ;
553 -> 554 ;
555 [label=<squared_error = 0.0<br/>samples = 1<br/>value = 58.9>, fillcolor="#f5cdb0"] ;
553 -> 555 ;
556 [label=<squared_error = 0.0<br/>samples = 1<br/>value = 51.0>, fillcolor="#f9e1cf"] ;
526 -> 556 ;
557 [label=<squared_error = 0.0<br/>samples = 1<br/>value = 45.5>, fillcolor="#fcefe5"] ;
403 -> 557 ;
558 [label=<PC4 &le; -1.263<br/>squared_error = 21.41<br/>samples = 43<br/>value = 64.069>, fillcolor="#f2c09c"] ;
378 -> 558 ;
559 [label=<squared_error = 0.0<br/>samples = 1<br/>value = 79.0>, fillcolor="#ea9a61"] ;
558 -> 559 ;
560 [label=<PC1 &le; -1.808<br/>squared_error = 11.634<br/>samples = 42<br/>value = 63.38>, fillcolor="#f2c29e"] ;
558 -> 560 ;
561 [label=<PC2 &le; -0.182<br/>squared_error = 6.648<br/>samples = 18<br/>value = 61.572>, fillcolor="#f3c6a6"] ;
560 -> 561 ;
562 [label=<PC2 &le; -0.277<br/>squared_error = 0.907<br/>samples = 2<br/>value = 65.35>, fillcolor="#f1bd97"] ;
561 -> 562 ;
563 [label=<squared_error = -0.0<br/>samples = 1<br/>value = 64.8>, fillcolor="#f2be99"] ;
562 -> 563 ;
564 [label=<squared_error = -0.0<br/>samples = 1<br/>value = 67.0>, fillcolor="#f0b890"] ;
562 -> 564 ;
565 [label=<PC2 &le; 0.822<br/>squared_error = 4.917<br/>samples = 16<br/>value = 60.968>, fillcolor="#f4c8a8"] ;
561 -> 565 ;
566 [label=<PC2 &le; -0.035<br/>squared_error = 4.415<br/>samples = 12<br/>value = 61.54>, fillcolor="#f3c6a6"] ;
565 -> 566 ;
567 [label=<PC6 &le; 0.599<br/>squared_error = 2.97<br/>samples = 3<br/>value = 58.4>, fillcolor="#f5ceb2"] ;
566 -> 567 ;
568 [label=<PC5 &le; 0.44<br/>squared_error = 0.72<br/>samples = 2<br/>value = 59.3>, fillcolor="#f4ccaf"] ;
567 -> 568 ;
569 [label=<squared_error = 0.0<br/>samples = 1<br/>value = 58.1>, fillcolor="#f5cfb3"] ;
568 -> 569 ;
570 [label=<squared_error = -0.0<br/>samples = 1<br/>value = 59.9>, fillcolor="#f4caac"] ;
568 -> 570 ;
571 [label=<squared_error = -0.0<br/>samples = 1<br/>value = 55.7>, fillcolor="#f6d5bd"] ;
567 -> 571 ;
572 [label=<PC3 &le; 1.461<br/>squared_error = 1.696<br/>samples = 9<br/>value = 62.325>, fillcolor="#f3c4a3"] ;
566 -> 572 ;
573 [label=<PC7 &le; -0.398<br/>squared_error = 0.974<br/>samples = 8<br/>value = 62.553>, fillcolor="#f3c4a2"] ;
572 -> 573 ;
574 [label=<PC3 &le; 0.842<br/>squared_error = 0.584<br/>samples = 6<br/>value = 63.07>, fillcolor="#f2c2a0"] ;
573 -> 574 ;
575 [label=<PC3 &le; 0.19<br/>squared_error = 0.056<br/>samples = 2<br/>value = 64.033>, fillcolor="#f2c09c"] ;
574 -> 575 ;
576 [label=<squared_error = 0.0<br/>samples = 1<br/>value = 63.7>, fillcolor="#f2c19d"] ;
575 -> 576 ;
577 [label=<squared_error = -0.0<br/>samples = 1<br/>value = 64.2>, fillcolor="#f2bf9b"] ;
575 -> 577 ;
578 [label=<PC2 &le; 0.038<br/>squared_error = 0.242<br/>samples = 4<br/>value = 62.657>, fillcolor="#f3c3a1"] ;
574 -> 578 ;
579 [label=<squared_error = 0.0<br/>samples = 1<br/>value = 62.0>, fillcolor="#f3c5a4"] ;
578 -> 579 ;
580 [label=<PC6 &le; 0.476<br/>squared_error = 0.098<br/>samples = 3<br/>value = 62.92>, fillcolor="#f3c3a0"] ;
578 -> 580 ;
581 [label=<PC6 &le; -0.175<br/>squared_error = 0.017<br/>samples = 2<br/>value = 62.775>, fillcolor="#f3c3a1"] ;
580 -> 581 ;
582 [label=<squared_error = 0.0<br/>samples = 1<br/>value = 63.0>, fillcolor="#f3c3a0"] ;
581 -> 582 ;
583 [label=<squared_error = -0.0<br/>samples = 1<br/>value = 62.7>, fillcolor="#f3c3a1"] ;
581 -> 583 ;
584 [label=<squared_error = 0.0<br/>samples = 1<br/>value = 63.5>, fillcolor="#f2c19e"] ;
580 -> 584 ;
585 [label=<PC4 &le; -0.07<br/>squared_error = 0.154<br/>samples = 2<br/>value = 61.52>, fillcolor="#f3c6a6"] ;
573 -> 585 ;
586 [label=<squared_error = 0.0<br/>samples = 1<br/>value = 62.0>, fillcolor="#f3c5a4"] ;
585 -> 586 ;
587 [label=<squared_error = -0.0<br/>samples = 1<br/>value = 61.2>, fillcolor="#f3c7a7"] ;
585 -> 587 ;
588 [label=<squared_error = 0.0<br/>samples = 1<br/>value = 58.9>, fillcolor="#f5cdb0"] ;
572 -> 588 ;
589 [label=<PC5 &le; -0.183<br/>squared_error = 0.382<br/>samples = 4<br/>value = 58.68>, fillcolor="#f5cdb1"] ;
565 -> 589 ;
590 [label=<PC2 &le; 0.899<br/>squared_error = 0.122<br/>samples = 2<br/>value = 59.35>, fillcolor="#f4ccae"] ;
589 -> 590 ;
591 [label=<squared_error = 0.0<br/>samples = 1<br/>value = 59.7>, fillcolor="#f4cbad"] ;
590 -> 591 ;
592 [label=<squared_error = 0.0<br/>samples = 1<br/>value = 59.0>, fillcolor="#f5cdb0"] ;
590 -> 592 ;
593 [label=<PC4 &le; 0.491<br/>squared_error = 0.056<br/>samples = 2<br/>value = 58.233>, fillcolor="#f5cfb3"] ;
589 -> 593 ;
594 [label=<squared_error = 0.0<br/>samples = 1<br/>value = 58.4>, fillcolor="#f5ceb2"] ;
593 -> 594 ;
595 [label=<squared_error = 0.0<br/>samples = 1<br/>value = 57.9>, fillcolor="#f5cfb4"] ;
593 -> 595 ;
596 [label=<PC4 &le; -0.044<br/>squared_error = 10.898<br/>samples = 24<br/>value = 64.836>, fillcolor="#f2be99"] ;
560 -> 596 ;
597 [label=<PC4 &le; -0.603<br/>squared_error = 8.793<br/>samples = 15<br/>value = 66.571>, fillcolor="#f1ba92"] ;
596 -> 597 ;
598 [label=<PC3 &le; -0.829<br/>squared_error = 4.21<br/>samples = 12<br/>value = 65.447>, fillcolor="#f1bc96"] ;
597 -> 598 ;
599 [label=<squared_error = 0.0<br/>samples = 1<br/>value = 71.7>, fillcolor="#eead7e"] ;
598 -> 599 ;
600 [label=<PC4 &le; -0.838<br/>squared_error = 1.876<br/>samples = 11<br/>value = 65.056>, fillcolor="#f1bd98"] ;
598 -> 600 ;
601 [label=<PC5 &le; -0.642<br/>squared_error = 0.766<br/>samples = 7<br/>value = 65.683>, fillcolor="#f1bc95"] ;
600 -> 601 ;
602 [label=<squared_error = 0.0<br/>samples = 1<br/>value = 68.3>, fillcolor="#f0b58b"] ;
601 -> 602 ;
603 [label=<PC2 &le; 0.161<br/>squared_error = 0.157<br/>samples = 6<br/>value = 65.445>, fillcolor="#f1bc96"] ;
601 -> 603 ;
604 [label=<PC4 &le; -1.142<br/>squared_error = 0.017<br/>samples = 2<br/>value = 65.875>, fillcolor="#f1bb95"] ;
603 -> 604 ;
605 [label=<squared_error = 0.0<br/>samples = 1<br/>value = 66.1>, fillcolor="#f1bb94"] ;
604 -> 605 ;
606 [label=<squared_error = 0.0<br/>samples = 1<br/>value = 65.8>, fillcolor="#f1bb95"] ;
604 -> 606 ;
607 [label=<PC4 &le; -0.932<br/>squared_error = 0.071<br/>samples = 4<br/>value = 65.2>, fillcolor="#f1bd97"] ;
603 -> 607 ;
608 [label=<PC3 &le; 0.691<br/>squared_error = 0.035<br/>samples = 3<br/>value = 65.283>, fillcolor="#f1bd97"] ;
607 -> 608 ;
609 [label=<PC1 &le; -1.133<br/>squared_error = 0.002<br/>samples = 2<br/>value = 65.467>, fillcolor="#f1bc96"] ;
608 -> 609 ;
610 [label=<squared_error = 0.0<br/>samples = 1<br/>value = 65.5>, fillcolor="#f1bc96"] ;
609 -> 610 ;
611 [label=<squared_error = -0.0<br/>samples = 1<br/>value = 65.4>, fillcolor="#f1bc96"] ;
609 -> 611 ;
612 [label=<squared_error = 0.0<br/>samples = 1<br/>value = 65.1>, fillcolor="#f1bd98"] ;
608 -> 612 ;
613 [label=<squared_error = -0.0<br/>samples = 1<br/>value = 64.7>, fillcolor="#f2be99"] ;
607 -> 613 ;
614 [label=<PC5 &le; 0.481<br/>squared_error = 0.487<br/>samples = 4<br/>value = 63.175>, fillcolor="#f2c29f"] ;
600 -> 614 ;
615 [label=<PC4 &le; -0.796<br/>squared_error = 0.136<br/>samples = 3<br/>value = 63.533>, fillcolor="#f2c19e"] ;
614 -> 615 ;
616 [label=<squared_error = 0.0<br/>samples = 1<br/>value = 64.0>, fillcolor="#f2c09c"] ;
615 -> 616 ;
617 [label=<PC3 &le; 0.093<br/>squared_error = 0.04<br/>samples = 2<br/>value = 63.3>, fillcolor="#f2c29f"] ;
615 -> 617 ;
618 [label=<squared_error = 0.0<br/>samples = 1<br/>value = 63.1>, fillcolor="#f2c2a0"] ;
617 -> 618 ;
619 [label=<squared_error = 0.0<br/>samples = 1<br/>value = 63.5>, fillcolor="#f2c19e"] ;
617 -> 619 ;
620 [label=<squared_error = 0.0<br/>samples = 1<br/>value = 62.1>, fillcolor="#f3c5a4"] ;
614 -> 620 ;
621 [label=<PC6 &le; -0.336<br/>squared_error = 0.068<br/>samples = 3<br/>value = 71.35>, fillcolor="#eead7f"] ;
597 -> 621 ;
622 [label=<squared_error = 0.0<br/>samples = 1<br/>value = 71.6>, fillcolor="#eead7e"] ;
621 -> 622 ;
623 [label=<PC1 &le; -1.118<br/>squared_error = 0.01<br/>samples = 2<br/>value = 71.1>, fillcolor="#eeae80"] ;
621 -> 623 ;
624 [label=<squared_error = 0.0<br/>samples = 1<br/>value = 71.2>, fillcolor="#eeae7f"] ;
623 -> 624 ;
625 [label=<squared_error = 0.0<br/>samples = 1<br/>value = 71.0>, fillcolor="#eeae80"] ;
623 -> 625 ;
626 [label=<PC5 &le; -0.271<br/>squared_error = 3.727<br/>samples = 9<br/>value = 62.407>, fillcolor="#f3c4a2"] ;
596 -> 626 ;
627 [label=<PC4 &le; 0.501<br/>squared_error = 1.437<br/>samples = 7<br/>value = 63.023>, fillcolor="#f3c2a0"] ;
626 -> 627 ;
628 [label=<PC4 &le; -0.003<br/>squared_error = 0.02<br/>samples = 4<br/>value = 63.938>, fillcolor="#f2c09c"] ;
627 -> 628 ;
629 [label=<squared_error = 0.0<br/>samples = 1<br/>value = 63.7>, fillcolor="#f2c19d"] ;
628 -> 629 ;
630 [label=<PC7 &le; 0.45<br/>squared_error = 0.001<br/>samples = 3<br/>value = 64.017>, fillcolor="#f2c09c"] ;
628 -> 630 ;
631 [label=<squared_error = 0.0<br/>samples = 2<br/>value = 64.0>, fillcolor="#f2c09c"] ;
630 -> 631 ;
632 [label=<squared_error = -0.0<br/>samples = 1<br/>value = 64.1>, fillcolor="#f2c09c"] ;
630 -> 632 ;
633 [label=<PC3 &le; 1.653<br/>squared_error = 0.226<br/>samples = 3<br/>value = 61.56>, fillcolor="#f3c6a6"] ;
627 -> 633 ;
634 [label=<PC4 &le; 0.64<br/>squared_error = 0.062<br/>samples = 2<br/>value = 61.35>, fillcolor="#f3c7a6"] ;
633 -> 634 ;
635 [label=<squared_error = 0.0<br/>samples = 1<br/>value = 61.1>, fillcolor="#f4c7a7"] ;
634 -> 635 ;
636 [label=<squared_error = 0.0<br/>samples = 1<br/>value = 61.6>, fillcolor="#f3c6a6"] ;
634 -> 636 ;
637 [label=<squared_error = 0.0<br/>samples = 1<br/>value = 62.4>, fillcolor="#f3c4a2"] ;
633 -> 637 ;
638 [label=<PC6 &le; -2.038<br/>squared_error = 0.09<br/>samples = 2<br/>value = 58.4>, fillcolor="#f5ceb2"] ;
626 -> 638 ;
639 [label=<squared_error = 0.0<br/>samples = 1<br/>value = 58.1>, fillcolor="#f5cfb3"] ;
638 -> 639 ;
640 [label=<squared_error = 0.0<br/>samples = 1<br/>value = 58.7>, fillcolor="#f5cdb1"] ;
638 -> 640 ;
641 [label=<PC1 &le; -2.155<br/>squared_error = 32.026<br/>samples = 119<br/>value = 53.291>, fillcolor="#f8dbc6"] ;
337 -> 641 ;
642 [label=<PC3 &le; 0.495<br/>squared_error = 20.46<br/>samples = 95<br/>value = 51.946>, fillcolor="#f8decc"] ;
641 -> 642 ;
643 [label=<PC5 &le; 0.757<br/>squared_error = 16.183<br/>samples = 75<br/>value = 53.132>, fillcolor="#f8dbc7"] ;
642 -> 643 ;
644 [label=<PC1 &le; -2.643<br/>squared_error = 12.36<br/>samples = 72<br/>value = 53.648>, fillcolor="#f7dac5"] ;
643 -> 644 ;
645 [label=<PC6 &le; -0.08<br/>squared_error = 9.635<br/>samples = 53<br/>value = 52.558>, fillcolor="#f8ddc9"] ;
644 -> 645 ;
646 [label=<PC3 &le; -0.781<br/>squared_error = 1.584<br/>samples = 4<br/>value = 47.575>, fillcolor="#fbe9dd"] ;
645 -> 646 ;
647 [label=<squared_error = 0.0<br/>samples = 1<br/>value = 49.6>, fillcolor="#f9e4d5"] ;
646 -> 647 ;
648 [label=<PC5 &le; 0.03<br/>squared_error = 0.29<br/>samples = 3<br/>value = 46.9>, fillcolor="#fbebe0"] ;
646 -> 648 ;
649 [label=<PC1 &le; -3.708<br/>squared_error = 0.067<br/>samples = 2<br/>value = 47.25>, fillcolor="#fbeade"] ;
648 -> 649 ;
650 [label=<squared_error = 0.0<br/>samples = 1<br/>value = 47.7>, fillcolor="#fae9dd"] ;
649 -> 650 ;
651 [label=<squared_error = -0.0<br/>samples = 1<br/>value = 47.1>, fillcolor="#fbebdf"] ;
649 -> 651 ;
652 [label=<squared_error = 0.0<br/>samples = 1<br/>value = 46.2>, fillcolor="#fbede2"] ;
648 -> 652 ;
653 [label=<PC7 &le; 0.362<br/>squared_error = 7.653<br/>samples = 49<br/>value = 53.069>, fillcolor="#f8dcc7"] ;
645 -> 653 ;
654 [label=<PC3 &le; -0.47<br/>squared_error = 6.167<br/>samples = 37<br/>value = 53.712>, fillcolor="#f7dac5"] ;
653 -> 654 ;
655 [label=<PC2 &le; 1.565<br/>squared_error = 1.56<br/>samples = 7<br/>value = 56.079>, fillcolor="#f6d4bb"] ;
654 -> 655 ;
656 [label=<PC4 &le; 0.529<br/>squared_error = 0.274<br/>samples = 5<br/>value = 56.956>, fillcolor="#f6d2b8"] ;
655 -> 656 ;
657 [label=<PC5 &le; 0.449<br/>squared_error = 0.056<br/>samples = 2<br/>value = 57.567>, fillcolor="#f5d0b5"] ;
656 -> 657 ;
658 [label=<squared_error = 0.0<br/>samples = 1<br/>value = 57.4>, fillcolor="#f5d1b6"] ;
657 -> 658 ;
659 [label=<squared_error = 0.0<br/>samples = 1<br/>value = 57.9>, fillcolor="#f5cfb4"] ;
657 -> 659 ;
660 [label=<PC1 &le; -3.194<br/>squared_error = 0.103<br/>samples = 3<br/>value = 56.65>, fillcolor="#f6d3b9"] ;
656 -> 660 ;
661 [label=<PC6 &le; 0.302<br/>squared_error = 0.002<br/>samples = 2<br/>value = 56.875>, fillcolor="#f6d2b8"] ;
660 -> 661 ;
662 [label=<squared_error = 0.0<br/>samples = 1<br/>value = 56.9>, fillcolor="#f6d2b8"] ;
661 -> 662 ;
663 [label=<squared_error = -0.0<br/>samples = 1<br/>value = 56.8>, fillcolor="#f6d2b9"] ;
661 -> 663 ;
664 [label=<squared_error = 0.0<br/>samples = 1<br/>value = 56.2>, fillcolor="#f6d4bb"] ;
660 -> 664 ;
665 [label=<squared_error = 0.0<br/>samples = 2<br/>value = 54.5>, fillcolor="#f7d8c2"] ;
655 -> 665 ;
666 [label=<PC1 &le; -3.418<br/>squared_error = 5.345<br/>samples = 30<br/>value = 52.991>, fillcolor="#f8dcc8"] ;
654 -> 666 ;
667 [label=<PC5 &le; -0.058<br/>squared_error = 3.786<br/>samples = 11<br/>value = 51.953>, fillcolor="#f8decc"] ;
666 -> 667 ;
668 [label=<squared_error = 0.0<br/>samples = 1<br/>value = 58.0>, fillcolor="#f5cfb4"] ;
667 -> 668 ;
669 [label=<PC3 &le; -0.159<br/>squared_error = 1.851<br/>samples = 10<br/>value = 51.617>, fillcolor="#f8dfcd"] ;
667 -> 669 ;
670 [label=<PC3 &le; -0.233<br/>squared_error = 0.272<br/>samples = 5<br/>value = 52.48>, fillcolor="#f8ddca"] ;
669 -> 670 ;
671 [label=<PC4 &le; 0.663<br/>squared_error = 0.067<br/>samples = 2<br/>value = 51.95>, fillcolor="#f8decc"] ;
670 -> 671 ;
672 [label=<squared_error = 0.0<br/>samples = 1<br/>value = 52.1>, fillcolor="#f8decb"] ;
671 -> 672 ;
673 [label=<squared_error = -0.0<br/>samples = 1<br/>value = 51.5>, fillcolor="#f8e0ce"] ;
671 -> 673 ;
674 [label=<PC7 &le; -0.215<br/>squared_error = 0.096<br/>samples = 3<br/>value = 52.833>, fillcolor="#f8dcc8"] ;
670 -> 674 ;
675 [label=<PC4 &le; 0.556<br/>squared_error = 0.09<br/>samples = 2<br/>value = 52.7>, fillcolor="#f8dcc9"] ;
674 -> 675 ;
676 [label=<squared_error = 0.0<br/>samples = 1<br/>value = 53.0>, fillcolor="#f8dcc8"] ;
675 -> 676 ;
677 [label=<squared_error = -0.0<br/>samples = 1<br/>value = 52.4>, fillcolor="#f8ddca"] ;
675 -> 677 ;
678 [label=<squared_error = -0.0<br/>samples = 1<br/>value = 53.1>, fillcolor="#f8dbc7"] ;
674 -> 678 ;
679 [label=<PC7 &le; -0.876<br/>squared_error = 1.73<br/>samples = 5<br/>value = 50.538>, fillcolor="#f9e2d1"] ;
669 -> 679 ;
680 [label=<PC6 &le; 0.094<br/>squared_error = 0.202<br/>samples = 2<br/>value = 51.65>, fillcolor="#f8dfcd"] ;
679 -> 680 ;
681 [label=<squared_error = 0.0<br/>samples = 1<br/>value = 51.2>, fillcolor="#f9e0cf"] ;
680 -> 681 ;
682 [label=<squared_error = -0.0<br/>samples = 1<br/>value = 52.1>, fillcolor="#f8decb"] ;
680 -> 682 ;
683 [label=<PC4 &le; 0.437<br/>squared_error = 0.782<br/>samples = 3<br/>value = 49.425>, fillcolor="#fae5d6"] ;
679 -> 683 ;
684 [label=<PC2 &le; 1.208<br/>squared_error = 0.009<br/>samples = 2<br/>value = 49.933>, fillcolor="#f9e3d4"] ;
683 -> 684 ;
685 [label=<squared_error = 0.0<br/>samples = 1<br/>value = 49.8>, fillcolor="#f9e4d4"] ;
684 -> 685 ;
686 [label=<squared_error = -0.0<br/>samples = 1<br/>value = 50.0>, fillcolor="#f9e3d3"] ;
684 -> 686 ;
687 [label=<squared_error = 0.0<br/>samples = 1<br/>value = 47.9>, fillcolor="#fae9dc"] ;
683 -> 687 ;
688 [label=<PC2 &le; 1.217<br/>squared_error = 5.149<br/>samples = 19<br/>value = 53.722>, fillcolor="#f7dac5"] ;
666 -> 688 ;
689 [label=<PC5 &le; 0.373<br/>squared_error = 4.522<br/>samples = 4<br/>value = 56.08>, fillcolor="#f6d4bb"] ;
688 -> 689 ;
690 [label=<PC6 &le; 0.348<br/>squared_error = 0.023<br/>samples = 2<br/>value = 58.45>, fillcolor="#f5ceb2"] ;
689 -> 690 ;
691 [label=<squared_error = 0.0<br/>samples = 1<br/>value = 58.6>, fillcolor="#f5ceb1"] ;
690 -> 691 ;
692 [label=<squared_error = 0.0<br/>samples = 1<br/>value = 58.3>, fillcolor="#f5ceb3"] ;
690 -> 692 ;
693 [label=<PC6 &le; 0.551<br/>squared_error = 1.28<br/>samples = 2<br/>value = 54.5>, fillcolor="#f7d8c2"] ;
689 -> 693 ;
694 [label=<squared_error = 0.0<br/>samples = 1<br/>value = 52.9>, fillcolor="#f8dcc8"] ;
693 -> 694 ;
695 [label=<squared_error = 0.0<br/>samples = 1<br/>value = 55.3>, fillcolor="#f7d6be"] ;
693 -> 695 ;
696 [label=<PC7 &le; -0.754<br/>squared_error = 3.741<br/>samples = 15<br/>value = 53.186>, fillcolor="#f8dbc7"] ;
688 -> 696 ;
697 [label=<squared_error = 0.0<br/>samples = 1<br/>value = 58.0>, fillcolor="#f5cfb4"] ;
696 -> 697 ;
698 [label=<PC1 &le; -3.353<br/>squared_error = 2.763<br/>samples = 14<br/>value = 52.957>, fillcolor="#f8dcc8"] ;
696 -> 698 ;
699 [label=<squared_error = 0.0<br/>samples = 1<br/>value = 48.6>, fillcolor="#fae7d9"] ;
698 -> 699 ;
700 [label=<PC5 &le; 0.213<br/>squared_error = 1.905<br/>samples = 13<br/>value = 53.175>, fillcolor="#f8dbc7"] ;
698 -> 700 ;
701 [label=<PC2 &le; 1.405<br/>squared_error = 1.304<br/>samples = 11<br/>value = 53.524>, fillcolor="#f7dac5"] ;
700 -> 701 ;
702 [label=<PC4 &le; -0.931<br/>squared_error = 0.44<br/>samples = 5<br/>value = 52.4>, fillcolor="#f8ddca"] ;
701 -> 702 ;
703 [label=<PC5 &le; 0.138<br/>squared_error = 0.053<br/>samples = 4<br/>value = 52.85>, fillcolor="#f8dcc8"] ;
702 -> 703 ;
704 [label=<squared_error = 0.0<br/>samples = 1<br/>value = 53.2>, fillcolor="#f8dbc7"] ;
703 -> 704 ;
705 [label=<PC2 &le; 1.276<br/>squared_error = 0.016<br/>samples = 3<br/>value = 52.733>, fillcolor="#f8dcc9"] ;
703 -> 705 ;
706 [label=<squared_error = 0.0<br/>samples = 1<br/>value = 52.9>, fillcolor="#f8dcc8"] ;
705 -> 706 ;
707 [label=<PC3 &le; 0.204<br/>squared_error = 0.003<br/>samples = 2<br/>value = 52.65>, fillcolor="#f8ddc9"] ;
705 -> 707 ;
708 [label=<squared_error = 0.0<br/>samples = 1<br/>value = 52.6>, fillcolor="#f8ddc9"] ;
707 -> 708 ;
709 [label=<squared_error = 0.0<br/>samples = 1<br/>value = 52.7>, fillcolor="#f8dcc9"] ;
707 -> 709 ;
710 [label=<squared_error = 0.0<br/>samples = 1<br/>value = 51.5>, fillcolor="#f8e0ce"] ;
702 -> 710 ;
711 [label=<PC4 &le; -0.129<br/>squared_error = 0.711<br/>samples = 6<br/>value = 54.136>, fillcolor="#f7d9c3"] ;
701 -> 711 ;
712 [label=<PC5 &le; -0.075<br/>squared_error = 0.27<br/>samples = 2<br/>value = 55.1>, fillcolor="#f7d6bf"] ;
711 -> 712 ;
713 [label=<squared_error = 0.0<br/>samples = 1<br/>value = 54.8>, fillcolor="#f7d7c0"] ;
712 -> 713 ;
714 [label=<squared_error = 0.0<br/>samples = 1<br/>value = 56.0>, fillcolor="#f6d4bc"] ;
712 -> 714 ;
715 [label=<PC3 &le; -0.375<br/>squared_error = 0.13<br/>samples = 4<br/>value = 53.586>, fillcolor="#f7dac5"] ;
711 -> 715 ;
716 [label=<squared_error = 0.0<br/>samples = 1<br/>value = 54.2>, fillcolor="#f7d9c3"] ;
715 -> 716 ;
717 [label=<PC7 &le; 0.266<br/>squared_error = 0.078<br/>samples = 3<br/>value = 53.483>, fillcolor="#f7dbc6"] ;
715 -> 717 ;
718 [label=<PC4 &le; 0.352<br/>squared_error = 0.002<br/>samples = 2<br/>value = 53.36>, fillcolor="#f8dbc6"] ;
717 -> 718 ;
719 [label=<squared_error = -0.0<br/>samples = 1<br/>value = 53.4>, fillcolor="#f8dbc6"] ;
718 -> 719 ;
720 [label=<squared_error = 0.0<br/>samples = 1<br/>value = 53.3>, fillcolor="#f8dbc6"] ;
718 -> 720 ;
721 [label=<squared_error = -0.0<br/>samples = 1<br/>value = 54.1>, fillcolor="#f7d9c3"] ;
717 -> 721 ;
722 [label=<PC2 &le; 1.891<br/>squared_error = 0.72<br/>samples = 2<br/>value = 51.2>, fillcolor="#f9e0cf"] ;
700 -> 722 ;
723 [label=<squared_error = 0.0<br/>samples = 1<br/>value = 51.8>, fillcolor="#f8dfcc"] ;
722 -> 723 ;
724 [label=<squared_error = 0.0<br/>samples = 1<br/>value = 50.0>, fillcolor="#f9e3d3"] ;
722 -> 724 ;
725 [label=<PC1 &le; -3.36<br/>squared_error = 6.643<br/>samples = 12<br/>value = 50.928>, fillcolor="#f9e1d0"] ;
653 -> 725 ;
726 [label=<PC6 &le; 0.124<br/>squared_error = 5.345<br/>samples = 6<br/>value = 52.938>, fillcolor="#f8dcc8"] ;
725 -> 726 ;
727 [label=<PC7 &le; 0.571<br/>squared_error = 0.093<br/>samples = 4<br/>value = 51.7>, fillcolor="#f8dfcd"] ;
726 -> 727 ;
728 [label=<PC1 &le; -3.554<br/>squared_error = 0.04<br/>samples = 2<br/>value = 52.1>, fillcolor="#f8decb"] ;
727 -> 728 ;
729 [label=<squared_error = 0.0<br/>samples = 1<br/>value = 52.3>, fillcolor="#f8ddca"] ;
728 -> 729 ;
730 [label=<squared_error = 0.0<br/>samples = 1<br/>value = 51.9>, fillcolor="#f8decc"] ;
728 -> 730 ;
731 [label=<squared_error = 0.0<br/>samples = 2<br/>value = 51.5>, fillcolor="#f8e0ce"] ;
727 -> 731 ;
732 [label=<PC4 &le; 0.704<br/>squared_error = 2.722<br/>samples = 2<br/>value = 56.65>, fillcolor="#f6d3b9"] ;
726 -> 732 ;
733 [label=<squared_error = 0.0<br/>samples = 1<br/>value = 55.0>, fillcolor="#f7d7c0"] ;
732 -> 733 ;
734 [label=<squared_error = -0.0<br/>samples = 1<br/>value = 58.3>, fillcolor="#f5ceb3"] ;
732 -> 734 ;
735 [label=<PC4 &le; 0.694<br/>squared_error = 1.866<br/>samples = 6<br/>value = 49.32>, fillcolor="#fae5d6"] ;
725 -> 735 ;
736 [label=<PC1 &le; -3.139<br/>squared_error = 0.14<br/>samples = 4<br/>value = 48.662>, fillcolor="#fae7d9"] ;
735 -> 736 ;
737 [label=<PC3 &le; -0.067<br/>squared_error = 0.02<br/>samples = 2<br/>value = 48.2>, fillcolor="#fae8db"] ;
736 -> 737 ;
738 [label=<squared_error = 0.0<br/>samples = 1<br/>value = 48.3>, fillcolor="#fae8da"] ;
737 -> 738 ;
739 [label=<squared_error = 0.0<br/>samples = 1<br/>value = 48.0>, fillcolor="#fae8db"] ;
737 -> 739 ;
740 [label=<PC2 &le; 1.343<br/>squared_error = 0.006<br/>samples = 2<br/>value = 48.94>, fillcolor="#fae6d8"] ;
736 -> 740 ;
741 [label=<squared_error = 0.0<br/>samples = 1<br/>value = 48.9>, fillcolor="#fae6d8"] ;
740 -> 741 ;
742 [label=<squared_error = 0.0<br/>samples = 1<br/>value = 49.1>, fillcolor="#fae6d7"] ;
740 -> 742 ;
743 [label=<PC3 &le; -1.122<br/>squared_error = 0.122<br/>samples = 2<br/>value = 51.95>, fillcolor="#f8decc"] ;
735 -> 743 ;
744 [label=<squared_error = 0.0<br/>samples = 1<br/>value = 51.6>, fillcolor="#f8dfcd"] ;
743 -> 744 ;
745 [label=<squared_error = -0.0<br/>samples = 1<br/>value = 52.3>, fillcolor="#f8ddca"] ;
743 -> 745 ;
746 [label=<PC5 &le; 0.506<br/>squared_error = 7.905<br/>samples = 19<br/>value = 56.578>, fillcolor="#f6d3b9"] ;
644 -> 746 ;
747 [label=<PC4 &le; -0.933<br/>squared_error = 3.604<br/>samples = 17<br/>value = 57.526>, fillcolor="#f5d0b6"] ;
746 -> 747 ;
748 [label=<PC6 &le; 0.633<br/>squared_error = 0.442<br/>samples = 5<br/>value = 55.6>, fillcolor="#f6d5bd"] ;
747 -> 748 ;
749 [label=<PC7 &le; -0.194<br/>squared_error = 0.116<br/>samples = 3<br/>value = 55.267>, fillcolor="#f7d6bf"] ;
748 -> 749 ;
750 [label=<squared_error = 0.0<br/>samples = 1<br/>value = 55.6>, fillcolor="#f6d5bd"] ;
749 -> 750 ;
751 [label=<PC6 &le; 0.15<br/>squared_error = 0.009<br/>samples = 2<br/>value = 54.933>, fillcolor="#f7d7c0"] ;
749 -> 751 ;
752 [label=<squared_error = 0.0<br/>samples = 1<br/>value = 54.8>, fillcolor="#f7d7c0"] ;
751 -> 752 ;
753 [label=<squared_error = -0.0<br/>samples = 1<br/>value = 55.0>, fillcolor="#f7d7c0"] ;
751 -> 753 ;
754 [label=<PC5 &le; -0.249<br/>squared_error = 0.09<br/>samples = 2<br/>value = 56.6>, fillcolor="#f6d3b9"] ;
748 -> 754 ;
755 [label=<squared_error = 0.0<br/>samples = 1<br/>value = 56.3>, fillcolor="#f6d3ba"] ;
754 -> 755 ;
756 [label=<squared_error = 0.0<br/>samples = 1<br/>value = 56.9>, fillcolor="#f6d2b8"] ;
754 -> 756 ;
757 [label=<PC1 &le; -2.397<br/>squared_error = 2.716<br/>samples = 12<br/>value = 58.337>, fillcolor="#f5ceb2"] ;
747 -> 757 ;
758 [label=<PC7 &le; 0.086<br/>squared_error = 2.087<br/>samples = 7<br/>value = 57.167>, fillcolor="#f6d1b7"] ;
757 -> 758 ;
759 [label=<PC3 &le; 0.18<br/>squared_error = 1.675<br/>samples = 4<br/>value = 56.0>, fillcolor="#f6d4bc"] ;
758 -> 759 ;
760 [label=<PC1 &le; -2.562<br/>squared_error = 0.082<br/>samples = 3<br/>value = 55.267>, fillcolor="#f7d6bf"] ;
759 -> 760 ;
761 [label=<squared_error = 0.0<br/>samples = 1<br/>value = 54.9>, fillcolor="#f7d7c0"] ;
760 -> 761 ;
762 [label=<PC1 &le; -2.489<br/>squared_error = 0.022<br/>samples = 2<br/>value = 55.45>, fillcolor="#f6d6be"] ;
760 -> 762 ;
763 [label=<squared_error = 0.0<br/>samples = 1<br/>value = 55.6>, fillcolor="#f6d5bd"] ;
762 -> 763 ;
764 [label=<squared_error = -0.0<br/>samples = 1<br/>value = 55.3>, fillcolor="#f7d6be"] ;
762 -> 764 ;
765 [label=<squared_error = 0.0<br/>samples = 1<br/>value = 58.2>, fillcolor="#f5cfb3"] ;
759 -> 765 ;
766 [label=<PC6 &le; 0.295<br/>squared_error = 0.456<br/>samples = 3<br/>value = 58.1>, fillcolor="#f5cfb3"] ;
758 -> 766 ;
767 [label=<squared_error = 0.0<br/>samples = 1<br/>value = 57.6>, fillcolor="#f5d0b5"] ;
766 -> 767 ;
768 [label=<PC7 &le; 0.197<br/>squared_error = 0.203<br/>samples = 2<br/>value = 58.85>, fillcolor="#f5cdb0"] ;
766 -> 768 ;
769 [label=<squared_error = 0.0<br/>samples = 1<br/>value = 58.4>, fillcolor="#f5ceb2"] ;
768 -> 769 ;
770 [label=<squared_error = 0.0<br/>samples = 1<br/>value = 59.3>, fillcolor="#f4ccaf"] ;
768 -> 770 ;
771 [label=<PC5 &le; -0.468<br/>squared_error = 0.941<br/>samples = 5<br/>value = 59.39>, fillcolor="#f4ccae"] ;
757 -> 771 ;
772 [label=<squared_error = 0.0<br/>samples = 1<br/>value = 61.8>, fillcolor="#f3c6a5"] ;
771 -> 772 ;
773 [label=<PC1 &le; -2.314<br/>squared_error = 0.328<br/>samples = 4<br/>value = 59.122>, fillcolor="#f5ccaf"] ;
771 -> 773 ;
774 [label=<PC6 &le; 0.506<br/>squared_error = 0.01<br/>samples = 2<br/>value = 59.5>, fillcolor="#f4cbae"] ;
773 -> 774 ;
775 [label=<squared_error = 0.0<br/>samples = 1<br/>value = 59.6>, fillcolor="#f4cbad"] ;
774 -> 775 ;
776 [label=<squared_error = 0.0<br/>samples = 1<br/>value = 59.4>, fillcolor="#f4ccae"] ;
774 -> 776 ;
777 [label=<PC1 &le; -2.267<br/>squared_error = 0.109<br/>samples = 2<br/>value = 58.367>, fillcolor="#f5ceb2"] ;
773 -> 777 ;
778 [label=<squared_error = 0.0<br/>samples = 1<br/>value = 57.9>, fillcolor="#f5cfb4"] ;
777 -> 778 ;
779 [label=<squared_error = 0.0<br/>samples = 1<br/>value = 58.6>, fillcolor="#f5ceb1"] ;
777 -> 779 ;
780 [label=<PC5 &le; 0.733<br/>squared_error = 0.086<br/>samples = 2<br/>value = 51.46>, fillcolor="#f9e0ce"] ;
746 -> 780 ;
781 [label=<squared_error = 0.0<br/>samples = 1<br/>value = 51.1>, fillcolor="#f9e1cf"] ;
780 -> 781 ;
782 [label=<squared_error = -0.0<br/>samples = 1<br/>value = 51.7>, fillcolor="#f8dfcd"] ;
780 -> 782 ;
783 [label=<PC6 &le; 0.362<br/>squared_error = 0.388<br/>samples = 3<br/>value = 44.429>, fillcolor="#fcf1ea"] ;
643 -> 783 ;
784 [label=<PC5 &le; 0.794<br/>squared_error = 0.06<br/>samples = 2<br/>value = 44.8>, fillcolor="#fcf0e8"] ;
783 -> 784 ;
785 [label=<squared_error = 0.0<br/>samples = 1<br/>value = 45.1>, fillcolor="#fcf0e7"] ;
784 -> 785 ;
786 [label=<squared_error = 0.0<br/>samples = 1<br/>value = 44.6>, fillcolor="#fcf1e9"] ;
784 -> 786 ;
787 [label=<squared_error = 0.0<br/>samples = 1<br/>value = 43.5>, fillcolor="#fdf4ed"] ;
783 -> 787 ;
788 [label=<PC2 &le; 1.102<br/>squared_error = 9.14<br/>samples = 20<br/>value = 47.161>, fillcolor="#fbeadf"] ;
642 -> 788 ;
789 [label=<PC1 &le; -3.488<br/>squared_error = 1.807<br/>samples = 3<br/>value = 53.1>, fillcolor="#f8dbc7"] ;
788 -> 789 ;
790 [label=<squared_error = 0.0<br/>samples = 1<br/>value = 55.0>, fillcolor="#f7d7c0"] ;
789 -> 790 ;
791 [label=<PC5 &le; 0.269<br/>squared_error = 0.002<br/>samples = 2<br/>value = 52.15>, fillcolor="#f8decb"] ;
789 -> 791 ;
792 [label=<squared_error = 0.0<br/>samples = 1<br/>value = 52.1>, fillcolor="#f8decb"] ;
791 -> 792 ;
793 [label=<squared_error = -0.0<br/>samples = 1<br/>value = 52.2>, fillcolor="#f8decb"] ;
791 -> 793 ;
794 [label=<PC4 &le; 0.954<br/>squared_error = 5.742<br/>samples = 17<br/>value = 46.525>, fillcolor="#fbece1"] ;
788 -> 794 ;
795 [label=<PC3 &le; 1.071<br/>squared_error = 2.58<br/>samples = 15<br/>value = 47.027>, fillcolor="#fbebdf"] ;
794 -> 795 ;
796 [label=<PC6 &le; 0.624<br/>squared_error = 1.804<br/>samples = 12<br/>value = 47.538>, fillcolor="#fbe9dd"] ;
795 -> 796 ;
797 [label=<PC7 &le; 0.276<br/>squared_error = 1.58<br/>samples = 7<br/>value = 46.885>, fillcolor="#fbebe0"] ;
796 -> 797 ;
798 [label=<PC4 &le; -0.219<br/>squared_error = 0.891<br/>samples = 6<br/>value = 46.633>, fillcolor="#fbece1"] ;
797 -> 798 ;
799 [label=<PC1 &le; -3.729<br/>squared_error = 0.561<br/>samples = 5<br/>value = 46.818>, fillcolor="#fbebe0"] ;
798 -> 799 ;
800 [label=<squared_error = -0.0<br/>samples = 1<br/>value = 45.7>, fillcolor="#fceee4"] ;
799 -> 800 ;
801 [label=<PC6 &le; 0.449<br/>squared_error = 0.127<br/>samples = 4<br/>value = 47.238>, fillcolor="#fbeade"] ;
799 -> 801 ;
802 [label=<squared_error = 0.0<br/>samples = 1<br/>value = 46.8>, fillcolor="#fbebe0"] ;
801 -> 802 ;
803 [label=<PC5 &le; 0.166<br/>squared_error = 0.085<br/>samples = 3<br/>value = 47.383>, fillcolor="#fbeade"] ;
801 -> 803 ;
804 [label=<PC6 &le; 0.496<br/>squared_error = 0.009<br/>samples = 2<br/>value = 47.667>, fillcolor="#fae9dd"] ;
803 -> 804 ;
805 [label=<squared_error = 0.0<br/>samples = 1<br/>value = 47.6>, fillcolor="#fbe9dd"] ;
804 -> 805 ;
806 [label=<squared_error = 0.0<br/>samples = 1<br/>value = 47.8>, fillcolor="#fae9dc"] ;
804 -> 806 ;
807 [label=<squared_error = -0.0<br/>samples = 1<br/>value = 47.1>, fillcolor="#fbebdf"] ;
803 -> 807 ;
808 [label=<squared_error = -0.0<br/>samples = 1<br/>value = 44.6>, fillcolor="#fcf1e9"] ;
798 -> 808 ;
809 [label=<squared_error = 0.0<br/>samples = 1<br/>value = 49.9>, fillcolor="#f9e4d4"] ;
797 -> 809 ;
810 [label=<PC2 &le; 1.769<br/>squared_error = 0.347<br/>samples = 5<br/>value = 48.6>, fillcolor="#fae7d9"] ;
796 -> 810 ;
811 [label=<PC2 &le; 1.708<br/>squared_error = 0.002<br/>samples = 2<br/>value = 49.333>, fillcolor="#fae5d6"] ;
810 -> 811 ;
812 [label=<squared_error = 0.0<br/>samples = 1<br/>value = 49.3>, fillcolor="#fae5d6"] ;
811 -> 812 ;
813 [label=<squared_error = -0.0<br/>samples = 1<br/>value = 49.4>, fillcolor="#fae5d6"] ;
811 -> 813 ;
814 [label=<PC7 &le; -0.368<br/>squared_error = 0.038<br/>samples = 3<br/>value = 48.16>, fillcolor="#fae8db"] ;
810 -> 814 ;
815 [label=<squared_error = 0.0<br/>samples = 1<br/>value = 47.8>, fillcolor="#fae9dc"] ;
814 -> 815 ;
816 [label=<PC3 &le; 0.5<br/>squared_error = 0.007<br/>samples = 2<br/>value = 48.25>, fillcolor="#fae8da"] ;
814 -> 816 ;
817 [label=<squared_error = -0.0<br/>samples = 1<br/>value = 48.2>, fillcolor="#fae8db"] ;
816 -> 817 ;
818 [label=<squared_error = -0.0<br/>samples = 1<br/>value = 48.4>, fillcolor="#fae7da"] ;
816 -> 818 ;
819 [label=<PC5 &le; 0.585<br/>squared_error = 0.13<br/>samples = 3<br/>value = 44.88>, fillcolor="#fcf0e8"] ;
795 -> 819 ;
820 [label=<squared_error = 0.0<br/>samples = 1<br/>value = 45.3>, fillcolor="#fcefe6"] ;
819 -> 820 ;
821 [label=<PC1 &le; -2.764<br/>squared_error = 0.02<br/>samples = 2<br/>value = 44.6>, fillcolor="#fcf1e9"] ;
819 -> 821 ;
822 [label=<squared_error = 0.0<br/>samples = 1<br/>value = 44.8>, fillcolor="#fcf0e8"] ;
821 -> 822 ;
823 [label=<squared_error = -0.0<br/>samples = 1<br/>value = 44.5>, fillcolor="#fcf1e9"] ;
821 -> 823 ;
824 [label=<PC7 &le; -0.242<br/>squared_error = 1.0<br/>samples = 2<br/>value = 40.0>, fillcolor="#fefcfb"] ;
794 -> 824 ;
825 [label=<squared_error = 0.0<br/>samples = 1<br/>value = 41.0>, fillcolor="#fefaf7"] ;
824 -> 825 ;
826 [label=<squared_error = 0.0<br/>samples = 1<br/>value = 39.0>, fillcolor="#ffffff"] ;
824 -> 826 ;
827 [label=<PC7 &le; -0.66<br/>squared_error = 42.069<br/>samples = 24<br/>value = 58.674>, fillcolor="#f5cdb1"] ;
641 -> 827 ;
828 [label=<PC2 &le; 1.842<br/>squared_error = 1.495<br/>samples = 3<br/>value = 45.883>, fillcolor="#fbeee4"] ;
827 -> 828 ;
829 [label=<squared_error = 0.0<br/>samples = 1<br/>value = 44.8>, fillcolor="#fcf0e8"] ;
828 -> 829 ;
830 [label=<PC5 &le; -0.034<br/>squared_error = 0.642<br/>samples = 2<br/>value = 46.967>, fillcolor="#fbebdf"] ;
828 -> 830 ;
831 [label=<squared_error = 0.0<br/>samples = 1<br/>value = 48.1>, fillcolor="#fae8db"] ;
830 -> 831 ;
832 [label=<squared_error = -0.0<br/>samples = 1<br/>value = 46.4>, fillcolor="#fbece2"] ;
830 -> 832 ;
833 [label=<PC2 &le; 1.472<br/>squared_error = 14.29<br/>samples = 21<br/>value = 61.0>, fillcolor="#f4c8a8"] ;
827 -> 833 ;
834 [label=<PC3 &le; 0.126<br/>squared_error = 6.171<br/>samples = 6<br/>value = 65.273>, fillcolor="#f1bd97"] ;
833 -> 834 ;
835 [label=<PC3 &le; 0.091<br/>squared_error = 0.596<br/>samples = 3<br/>value = 63.067>, fillcolor="#f2c2a0"] ;
834 -> 835 ;
836 [label=<PC6 &le; 0.161<br/>squared_error = 0.04<br/>samples = 2<br/>value = 63.6>, fillcolor="#f2c19e"] ;
835 -> 836 ;
837 [label=<squared_error = 0.0<br/>samples = 1<br/>value = 63.4>, fillcolor="#f2c29e"] ;
836 -> 837 ;
838 [label=<squared_error = 0.0<br/>samples = 1<br/>value = 63.8>, fillcolor="#f2c19d"] ;
836 -> 838 ;
839 [label=<squared_error = 0.0<br/>samples = 1<br/>value = 62.0>, fillcolor="#f3c5a4"] ;
835 -> 839 ;
840 [label=<PC5 &le; -1.225<br/>squared_error = 0.014<br/>samples = 3<br/>value = 67.92>, fillcolor="#f0b68c"] ;
834 -> 840 ;
841 [label=<squared_error = 0.0<br/>samples = 1<br/>value = 67.7>, fillcolor="#f0b78d"] ;
840 -> 841 ;
842 [label=<PC5 &le; -0.626<br/>squared_error = 0.002<br/>samples = 2<br/>value = 67.975>, fillcolor="#f0b68c"] ;
840 -> 842 ;
843 [label=<squared_error = 0.0<br/>samples = 1<br/>value = 67.9>, fillcolor="#f0b68d"] ;
842 -> 843 ;
844 [label=<squared_error = 0.0<br/>samples = 1<br/>value = 68.0>, fillcolor="#f0b68c"] ;
842 -> 844 ;
845 [label=<PC4 &le; -1.228<br/>squared_error = 4.657<br/>samples = 15<br/>value = 58.864>, fillcolor="#f5cdb0"] ;
833 -> 845 ;
846 [label=<PC7 &le; -0.261<br/>squared_error = 3.935<br/>samples = 10<br/>value = 58.02>, fillcolor="#f5cfb4"] ;
845 -> 846 ;
847 [label=<PC2 &le; 1.852<br/>squared_error = 1.167<br/>samples = 3<br/>value = 60.2>, fillcolor="#f4caab"] ;
846 -> 847 ;
848 [label=<squared_error = 0.0<br/>samples = 1<br/>value = 61.7>, fillcolor="#f3c6a5"] ;
847 -> 848 ;
849 [label=<PC2 &le; 2.054<br/>squared_error = 0.062<br/>samples = 2<br/>value = 59.45>, fillcolor="#f4cbae"] ;
847 -> 849 ;
850 [label=<squared_error = 0.0<br/>samples = 1<br/>value = 59.2>, fillcolor="#f4ccaf"] ;
849 -> 850 ;
851 [label=<squared_error = 0.0<br/>samples = 1<br/>value = 59.7>, fillcolor="#f4cbad"] ;
849 -> 851 ;
852 [label=<PC6 &le; 1.121<br/>squared_error = 3.142<br/>samples = 7<br/>value = 57.475>, fillcolor="#f5d0b6"] ;
846 -> 852 ;
853 [label=<PC1 &le; -1.277<br/>squared_error = 2.24<br/>samples = 6<br/>value = 56.97>, fillcolor="#f6d2b8"] ;
852 -> 853 ;
854 [label=<PC7 &le; -0.182<br/>squared_error = 0.484<br/>samples = 5<br/>value = 56.522>, fillcolor="#f6d3ba"] ;
853 -> 854 ;
855 [label=<squared_error = 0.0<br/>samples = 1<br/>value = 57.5>, fillcolor="#f5d0b6"] ;
854 -> 855 ;
856 [label=<PC5 &le; 0.511<br/>squared_error = 0.271<br/>samples = 4<br/>value = 56.243>, fillcolor="#f6d4bb"] ;
854 -> 856 ;
857 [label=<PC1 &le; -1.732<br/>squared_error = 0.062<br/>samples = 3<br/>value = 56.433>, fillcolor="#f6d3ba"] ;
856 -> 857 ;
858 [label=<PC4 &le; -1.48<br/>squared_error = 0.04<br/>samples = 2<br/>value = 56.3>, fillcolor="#f6d3ba"] ;
857 -> 858 ;
859 [label=<squared_error = 0.0<br/>samples = 1<br/>value = 56.5>, fillcolor="#f6d3ba"] ;
858 -> 859 ;
860 [label=<squared_error = 0.0<br/>samples = 1<br/>value = 56.1>, fillcolor="#f6d4bb"] ;
858 -> 860 ;
861 [label=<squared_error = 0.0<br/>samples = 1<br/>value = 56.7>, fillcolor="#f6d2b9"] ;
857 -> 861 ;
862 [label=<squared_error = -0.0<br/>samples = 1<br/>value = 55.1>, fillcolor="#f7d6bf"] ;
856 -> 862 ;
863 [label=<squared_error = 0.0<br/>samples = 1<br/>value = 61.0>, fillcolor="#f4c8a8"] ;
853 -> 863 ;
864 [label=<squared_error = 0.0<br/>samples = 1<br/>value = 60.0>, fillcolor="#f4caac"] ;
852 -> 864 ;
865 [label=<PC4 &le; 0.251<br/>squared_error = 1.411<br/>samples = 5<br/>value = 60.671>, fillcolor="#f4c8a9"] ;
845 -> 865 ;
866 [label=<PC1 &le; -1.121<br/>squared_error = 0.218<br/>samples = 4<br/>value = 61.38>, fillcolor="#f3c7a6"] ;
865 -> 866 ;
867 [label=<PC1 &le; -1.648<br/>squared_error = 0.002<br/>samples = 2<br/>value = 61.033>, fillcolor="#f4c7a8"] ;
866 -> 867 ;
868 [label=<squared_error = 0.0<br/>samples = 1<br/>value = 61.0>, fillcolor="#f4c8a8"] ;
867 -> 868 ;
869 [label=<squared_error = 0.0<br/>samples = 1<br/>value = 61.1>, fillcolor="#f4c7a7"] ;
867 -> 869 ;
870 [label=<PC5 &le; 0.043<br/>squared_error = 0.09<br/>samples = 2<br/>value = 61.9>, fillcolor="#f3c5a4"] ;
866 -> 870 ;
871 [label=<squared_error = 0.0<br/>samples = 1<br/>value = 61.6>, fillcolor="#f3c6a6"] ;
870 -> 871 ;
872 [label=<squared_error = -0.0<br/>samples = 1<br/>value = 62.2>, fillcolor="#f3c5a3"] ;
870 -> 872 ;
873 [label=<squared_error = 0.0<br/>samples = 1<br/>value = 58.9>, fillcolor="#f5cdb0"] ;
865 -> 873 ;
